{"learner":{"attributes":{"scikit_learn":"{\"_estimator_type\": \"regressor\"}"},"feature_names":[],"feature_types":[],"gradient_booster":{"model":{"cats":{"enc":[],"feature_segments":[],"sorted_idx":[]},"gbtree_model_param":{"num_parallel_tree":"1","num_trees":"500"},"iteration_indptr":[0,1,2,3,4,5,6,7,8,9,10,11,12,13,14,15,16,17,18,19,20,21,22,23,24,25,26,27,28,29,30,31,32,33,34,35,36,37,38,39,40,41,42,43,44,45,46,47,48,49,50,51,52,53,54,55,56,57,58,59,60,61,62,63,64,65,66,67,68,69,70,71,72,73,74,75,76,77,78,79,80,81,82,83,84,85,86,87,88,89,90,91,92,93,94,95,96,97,98,99,100,101,102,103,104,105,106,107,108,109,110,111,112,113,114,115,116,117,118,119,120,121,122,123,124,125,126,127,128,129,130,131,132,133,134,135,136,137,138,139,140,141,142,143,144,145,146,147,148,149,150,151,152,153,154,155,156,157,158,159,160,161,162,163,164,165,166,167,168,169,170,171,172,173,174,175,176,177,178,179,180,181,182,183,184,185,186,187,188,189,190,191,192,193,194,195,196,197,198,199,200,201,202,203,204,205,206,207,208,209,210,211,212,213,214,215,216,217,218,219,220,221,222,223,224,225,226,227,228,229,230,231,232,233,234,235,236,237,238,239,240,241,242,243,244,245,246,247,248,249,250,251,252,253,254,255,256,257,258,259,260,261,262,263,264,265,266,267,268,269,270,271,272,273,274,275,276,277,278,279,280,281,282,283,284,285,286,287,288,289,290,291,292,293,294,295,296,297,298,299,300,301,302,303,304,305,306,307,308,309,310,311,312,313,314,315,316,317,318,319,320,321,322,323,324,325,326,327,328,329,330,331,332,333,334,335,336,337,338,339,340,341,342,343,344,345,346,347,348,349,350,351,352,353,354,355,356,357,358,359,360,361,362,363,364,365,366,367,368,369,370,371,372,373,374,375,376,377,378,379,380,381,382,383,384,385,386,387,388,389,390,391,392,393,394,395,396,397,398,399,400,401,402,403,404,405,406,407,408,409,410,411,412,413,414,415,416,417,418,419,420,421,422,423,424,425,426,427,428,429,430,431,432,433,434,435,436,437,438,439,440,441,442,443,444,445,446,447,448,449,450,451,452,453,454,455,456,457,458,459,460,461,462,463,464,465,466,467,468,469,470,471,472,473,474,475,476,477,478,479,480,481,482,483,484,485,486,487,488,489,490,491,492,493,494,495,496,497,498,499,500],"tree_info":[0,0,0,0,0,0,0,0,0,0,0,0,0,0,0,0,0,0,0,0,0,0,0,0,0,0,0,0,0,0,0,0,0,0,0,0,0,0,0,0,0,0,0,0,0,0,0,0,0,0,0,0,0,0,0,0,0,0,0,0,0,0,0,0,0,0,0,0,0,0,0,0,0,0,0,0,0,0,0,0,0,0,0,0,0,0,0,0,0,0,0,0,0,0,0,0,0,0,0,0,0,0,0,0,0,0,0,0,0,0,0,0,0,0,0,0,0,0,0,0,0,0,0,0,0,0,0,0,0,0,0,0,0,0,0,0,0,0,0,0,0,0,0,0,0,0,0,0,0,0,0,0,0,0,0,0,0,0,0,0,0,0,0,0,0,0,0,0,0,0,0,0,0,0,0,0,0,0,0,0,0,0,0,0,0,0,0,0,0,0,0,0,0,0,0,0,0,0,0,0,0,0,0,0,0,0,0,0,0,0,0,0,0,0,0,0,0,0,0,0,0,0,0,0,0,0,0,0,0,0,0,0,0,0,0,0,0,0,0,0,0,0,0,0,0,0,0,0,0,0,0,0,0,0,0,0,0,0,0,0,0,0,0,0,0,0,0,0,0,0,0,0,0,0,0,0,0,0,0,0,0,0,0,0,0,0,0,0,0,0,0,0,0,0,0,0,0,0,0,0,0,0,0,0,0,0,0,0,0,0,0,0,0,0,0,0,0,0,0,0,0,0,0,0,0,0,0,0,0,0,0,0,0,0,0,0,0,0,0,0,0,0,0,0,0,0,0,0,0,0,0,0,0,0,0,0,0,0,0,0,0,0,0,0,0,0,0,0,0,0,0,0,0,0,0,0,0,0,0,0,0,0,0,0,0,0,0,0,0,0,0,0,0,0,0,0,0,0,0,0,0,0,0,0,0,0,0,0,0,0,0,0,0,0,0,0,0,0,0,0,0,0,0,0,0,0,0,0,0,0,0,0,0,0,0,0,0,0,0,0,0,0,0,0,0,0,0,0,0,0,0,0,0,0,0,0,0,0,0,0,0,0,0,0,0,0,0,0,0,0,0,0,0,0,0,0,0,0,0,0,0,0,0,0,0,0,0,0,0,0,0,0,0,0,0,0,0,0,0,0],"trees":[{"base_weights":[1.741714E-1,3.7686186E0,-2.0824142E0,-6.0056406E-3,1.1927176E1,-3.166007E0,-8.38579E-1,-1.4038184E0,1.0320623E0,2.9802927E-1,1.4282104E1,-6.5235662E0,-2.5711136E0,4.382691E0,-1.5849043E0,-9.293902E-3,-1.03000306E-1,1.0820732E-1,-9.293902E-3,2.9802927E-1,7.527768E-1,-2.27367E-1,-3.491363E-1,-1.6453989E-1,-1.0011466E-1,8.106405E-2,5.7497966E-1,-9.1561936E-2,6.994467E-2],"categories":[],"categories_nodes":[],"categories_segments":[],"categories_sizes":[],"default_left":[0,0,0,0,0,0,0,0,0,0,0,0,0,0,0,0,0,0,0,0,0,0,0,0,0,0,0,0,0],"id":0,"left_children":[1,3,5,7,9,11,13,15,17,-1,19,21,23,25,27,-1,-1,-1,-1,-1,-1,-1,-1,-1,-1,-1,-1,-1,-1],"loss_changes":[5.057666E3,7.41931E3,5.0939355E2,2.4899924E2,1.4521445E3,3.7468738E2,7.2666724E2,7.357019E1,1.4696666E2,0E0,4.2131543E2,5.1171875E-1,1.2076233E2,4.1907916E2,1.26720276E2,0E0,0E0,0E0,0E0,0E0,0E0,0E0,0E0,0E0,0E0,0E0,0E0,0E0,0E0],"parents":[2147483647,0,0,1,1,2,2,3,3,4,4,5,5,6,6,7,7,8,8,10,10,11,11,12,12,13,13,14,14],"right_children":[2,4,6,8,10,12,14,16,18,-1,20,22,24,26,28,-1,-1,-1,-1,-1,-1,-1,-1,-1,-1,-1,-1,-1,-1],"split_conditions":[-4.832207E-1,8.919062E-1,1.6237538E-1,-3.8477278E-1,-1.0302979E0,-1.4055304E-1,-5.9206957E-1,-8.3179176E-1,-1.0527128E0,2.9802927E-1,-1.1302614E0,-1.4914709E0,-5.671555E-1,8.919062E-1,1.8255793E0,-9.293902E-3,-1.03000306E-1,1.0820732E-1,-9.293902E-3,2.9802927E-1,7.527768E-1,-2.27367E-1,-3.491363E-1,-1.6453989E-1,-1.0011466E-1,8.106405E-2,5.7497966E-1,-9.1561936E-2,6.994467E-2],"split_indices":[1,22,22,22,11,18,6,13,7,0,0,6,22,22,13,0,0,0,0,0,0,0,0,0,0,0,0,0,0],"split_type":[0,0,0,0,0,0,0,0,0,0,0,0,0,0,0,0,0,0,0,0,0,0,0,0,0,0,0,0,0],"sum_hessian":[6.18E2,2.38E2,3.8E2,1.64E2,7.4E1,2.01E2,1.79E2,7E1,9.4E1,1.5E1,5.9E1,2.7E1,1.74E2,2.1E1,1.58E2,2.1E1,4.9E1,5E1,4.4E1,4E0,5.5E1,3E0,2.4E1,1.09E2,6.5E1,1.7E1,4E0,1.47E2,1.1E1],"tree_param":{"num_deleted":"0","num_feature":"23","num_nodes":"29","size_leaf_vector":"1"}},{"base_weights":[9.5208794E-2,2.9547827E0,-2.1237948E0,4.1549397E-1,1.1710162E1,-3.1489074E0,-1.6129001E0,4.1549397E-1,1.7655947E0,6.062828E0,1.4215445E1,-1.6723302E-1,-1.19469084E-1,-1.9796469E0,-0E0,2.0774698E-2,5.452722E-2,2.0465653E-1,5.452722E-2,6.2581724E-1,3.0314142E-1,7.364315E-1,3.0314142E-1,-1.0645958E-1,1.593054E-2,-7.6320074E-2,2.0774698E-2],"categories":[],"categories_nodes":[],"categories_segments":[],"categories_sizes":[],"default_left":[0,0,0,0,0,0,0,0,0,0,0,0,0,0,0,0,0,0,0,0,0,0,0,0,0,0,0],"id":1,"left_children":[1,3,5,7,9,11,13,15,17,19,21,-1,-1,23,25,-1,-1,-1,-1,-1,-1,-1,-1,-1,-1,-1,-1],"loss_changes":[3.9003909E3,7.856819E3,1.710415E2,1.4270836E2,9.957539E2,1.0510254E-1,1.3792297E2,3.7703247E0,2.1962285E2,3.1422205E2,2.2612695E2,0E0,0E0,6.974896E1,5.5168964E1,0E0,0E0,0E0,0E0,0E0,0E0,0E0,0E0,0E0,0E0,0E0,0E0],"parents":[2147483647,0,0,1,1,2,2,3,3,4,4,5,5,6,6,7,7,8,8,9,9,10,10,13,13,14,14],"right_children":[2,4,6,8,10,12,14,16,18,20,22,-1,-1,24,26,-1,-1,-1,-1,-1,-1,-1,-1,-1,-1,-1,-1],"split_conditions":[-3.4781873E-1,8.919062E-1,-5.671555E-1,-1.3927993E-2,-6.4905345E-1,1.3561441E0,1.351739E0,3.126293E-1,-1.1983496E0,-1.2137383E0,1.7205846E0,-1.6723302E-1,-1.19469084E-1,1.6214371E0,-9.831671E-1,2.0774698E-2,5.452722E-2,2.0465653E-1,5.452722E-2,6.2581724E-1,3.0314142E-1,7.364315E-1,3.0314142E-1,-1.0645958E-1,1.593054E-2,-7.6320074E-2,2.0774698E-2],"split_indices":[7,22,22,15,11,18,13,8,8,7,5,0,0,22,15,0,0,0,0,0,0,0,0,0,0,0,0],"split_type":[0,0,0,0,0,0,0,0,0,0,0,0,0,0,0,0,0,0,0,0,0,0,0,0,0,0,0],"sum_hessian":[6.09E2,2.66E2,3.43E2,1.93E2,7.3E1,1.1E2,2.33E2,1.18E2,7.5E1,2.3E1,5E1,8.1E1,2.9E1,1.89E2,4.4E1,1.17E2,1E0,2.6E1,4.9E1,7E0,1.6E1,4.8E1,2E0,1.78E2,1.1E1,1.4E1,3E1],"tree_param":{"num_deleted":"0","num_feature":"23","num_nodes":"27","size_leaf_vector":"1"}},{"base_weights":[-3.2308046E-3,3.2183955E0,-2.0521555E0,7.237488E-2,1.0100764E1,-3.0136547E0,-9.605263E-1,-1.0837258E0,2.09085E0,5.08657E0,1.2092505E1,-6.655713E0,-2.6545804E0,3.3548224E0,-1.4944624E0,-8.8318385E-2,-1.2558015E-2,1.8506527E-1,4.5725588E-2,2.543285E-1,4.618412E-1,2.543285E-1,6.4727384E-1,-2.3275733E-1,-3.7388852E-1,-1.6255245E-1,-9.935453E-2,6.318451E-2,4.670485E-1,-8.22508E-2,4.31267E-2],"categories":[],"categories_nodes":[],"categories_segments":[],"categories_sizes":[],"default_left":[0,0,0,0,0,0,0,0,0,0,0,0,0,0,0,0,0,0,0,0,0,0,0,0,0,0,0,0,0,0,0],"id":2,"left_children":[1,3,5,7,9,11,13,15,17,19,21,23,25,27,29,-1,-1,-1,-1,-1,-1,-1,-1,-1,-1,-1,-1,-1,-1,-1,-1],"loss_changes":[4.2405337E3,5.3936406E3,4.0552393E2,4.154493E2,1.0833872E3,2.3865527E2,4.4681506E2,6.204901E1,1.1490857E2,8.227966E0,4.399414E2,1.805542E0,9.626721E1,2.4316116E2,6.5262024E1,0E0,0E0,0E0,0E0,0E0,0E0,0E0,0E0,0E0,0E0,0E0,0E0,0E0,0E0,0E0,0E0],"parents":[2147483647,0,0,1,1,2,2,3,3,4,4,5,5,6,6,7,7,8,8,9,9,10,10,11,11,12,12,13,13,14,14],"right_children":[2,4,6,8,10,12,14,16,18,20,22,24,26,28,30,-1,-1,-1,-1,-1,-1,-1,-1,-1,-1,-1,-1,-1,-1,-1,-1],"split_conditions":[-4.832207E-1,8.919062E-1,1.6237538E-1,-1.3927993E-2,-1.0302979E0,-7.6207775E-1,-5.9206957E-1,-2.0239006E-1,-1.1983496E0,9.122622E-1,-1.2979019E0,-4.6962443E-1,-5.671555E-1,-7.2314227E-1,1.8255793E0,-8.8318385E-2,-1.2558015E-2,1.8506527E-1,4.5725588E-2,2.543285E-1,4.618412E-1,2.543285E-1,6.4727384E-1,-2.3275733E-1,-3.7388852E-1,-1.6255245E-1,-9.935453E-2,6.318451E-2,4.670485E-1,-8.22508E-2,4.31267E-2],"split_indices":[1,22,22,15,11,0,6,22,8,5,1,1,22,19,13,0,0,0,0,0,0,0,0,0,0,0,0,0,0,0,0],"split_type":[0,0,0,0,0,0,0,0,0,0,0,0,0,0,0,0,0,0,0,0,0,0,0,0,0,0,0,0,0,0,0],"sum_hessian":[6.37E2,2.47E2,3.9E2,1.71E2,7.6E1,2.05E2,1.85E2,1.09E2,6.2E1,1.5E1,6.1E1,1.5E1,1.9E2,1.9E1,1.66E2,5.8E1,5.1E1,2.4E1,3.8E1,1.4E1,1E0,5E0,5.6E1,3E0,1.2E1,1.16E2,7.4E1,1.6E1,3E0,1.57E2,9E0],"tree_param":{"num_deleted":"0","num_feature":"23","num_nodes":"31","size_leaf_vector":"1"}},{"base_weights":[1.01895936E-1,3.2364628E0,-1.9186184E0,9.185474E-2,9.587191E0,-2.7353678E0,-9.541247E-1,-8.9900786E-1,1.8630028E0,4.839523E0,1.2342374E1,-5.269687E0,-2.1946182E0,4.3568363E0,-1.5601854E0,-1.1380016E-1,-2.1434573E-2,1.3518362E-1,2.4099873E-2,2.4197614E-1,4.1855845E-1,4.295474E-1,7.1644336E-1,-3.4749684E-1,-2.000796E-1,-1.4387833E-1,-9.2237316E-2,6.991627E-2,5.211034E-1,-9.2237316E-2,-1.3775465E-2],"categories":[],"categories_nodes":[],"categories_segments":[],"categories_sizes":[],"default_left":[0,0,0,0,0,0,0,0,0,0,0,0,0,0,0,0,0,0,0,0,0,0,0,0,0,0,0,0,0,0,0],"id":3,"left_children":[1,3,5,7,9,11,13,15,17,19,21,23,25,27,29,-1,-1,-1,-1,-1,-1,-1,-1,-1,-1,-1,-1,-1,-1,-1,-1],"loss_changes":[4.0645762E3,5.0140537E3,3.0106726E2,3.0799792E2,1.1276274E3,2.652838E2,6.0653937E2,7.019387E1,9.521298E1,1.0989172E2,5.1213086E2,1.9365662E1,9.035437E1,3.3048444E2,1.0038876E2,0E0,0E0,0E0,0E0,0E0,0E0,0E0,0E0,0E0,0E0,0E0,0E0,0E0,0E0,0E0,0E0],"parents":[2147483647,0,0,1,1,2,2,3,3,4,4,5,5,6,6,7,7,8,8,9,9,10,10,11,11,12,12,13,13,14,14],"right_children":[2,4,6,8,10,12,14,16,18,20,22,24,26,28,30,-1,-1,-1,-1,-1,-1,-1,-1,-1,-1,-1,-1,-1,-1,-1,-1],"split_conditions":[-4.832207E-1,8.919062E-1,1.6237538E-1,-1.3927993E-2,-9.928966E-1,8.584034E-3,-5.9206957E-1,-9.652182E-1,-6.0969913E-1,9.122622E-1,4.5005193E-1,-7.5485575E-1,-5.671555E-1,8.919062E-1,1.1054598E0,-1.1380016E-1,-2.1434573E-2,1.3518362E-1,2.4099873E-2,2.4197614E-1,4.1855845E-1,4.295474E-1,7.1644336E-1,-3.4749684E-1,-2.000796E-1,-1.4387833E-1,-9.2237316E-2,6.991627E-2,5.211034E-1,-9.2237316E-2,-1.3775465E-2],"split_indices":[1,22,22,15,14,18,6,15,10,5,5,18,22,22,13,0,0,0,0,0,0,0,0,0,0,0,0,0,0,0,0],"split_type":[0,0,0,0,0,0,0,0,0,0,0,0,0,0,0,0,0,0,0,0,0,0,0,0,0,0,0,0,0,0,0],"sum_hessian":[6.36E2,2.49E2,3.87E2,1.68E2,8.1E1,2.07E2,1.8E2,1.08E2,6E1,2.9E1,5.2E1,3.3E1,1.74E2,1.7E1,1.63E2,2.5E1,8.3E1,4.1E1,1.9E1,1.9E1,1E1,1.1E1,4.1E1,1E1,2.3E1,1.08E2,6.6E1,1.3E1,4E0,1.15E2,4.8E1],"tree_param":{"num_deleted":"0","num_feature":"23","num_nodes":"31","size_leaf_vector":"1"}},{"base_weights":[-3.150025E-2,2.8094757E0,-1.8629915E0,-0E0,9.140126E0,-2.8084416E0,-8.142203E-1,-7.7741635E-1,1.5021714E0,4.570063E0,1.2257578E1,-6.416643E0,-2.3253105E0,3.5340185E0,-1.367175E0,-8.288302E-2,7.1723694E-3,1.420013E-1,2.9352E-2,2.2850315E-1,3.7423548E-1,4.20691E-1,7.1453637E-1,-9.056655E-2,-3.5682374E-1,-1.436301E-1,-9.056655E-2,7.2744064E-2,4.702653E-1,-7.519253E-2,5.4171085E-2],"categories":[],"categories_nodes":[],"categories_segments":[],"categories_sizes":[],"default_left":[0,0,0,0,0,0,0,0,0,0,0,0,0,0,0,0,0,0,0,0,0,0,0,0,0,0,0,0,0,0,0],"id":4,"left_children":[1,3,5,7,9,11,13,15,17,19,21,23,25,27,29,-1,-1,-1,-1,-1,-1,-1,-1,-1,-1,-1,-1,-1,-1,-1,-1],"loss_changes":[3.2500046E3,4.352375E3,3.7112476E2,2.0659268E2,1.1165547E3,3.184442E2,4.5567175E2,9.6443855E1,6.932272E1,1.1697131E2,3.2261133E2,6.706781E1,7.4781006E1,2.3277643E2,6.3990753E1,0E0,0E0,0E0,0E0,0E0,0E0,0E0,0E0,0E0,0E0,0E0,0E0,0E0,0E0,0E0,0E0],"parents":[2147483647,0,0,1,1,2,2,3,3,4,4,5,5,6,6,7,7,8,8,9,9,10,10,11,11,12,12,13,13,14,14],"right_children":[2,4,6,8,10,12,14,16,18,20,22,24,26,28,30,-1,-1,-1,-1,-1,-1,-1,-1,-1,-1,-1,-1,-1,-1,-1,-1],"split_conditions":[-4.832207E-1,8.919062E-1,1.6237538E-1,-1.3927993E-2,-9.928966E-1,-3.9084834E-1,-5.9206957E-1,-2.0239006E-1,-1.1983496E0,-6.763365E-1,-3.1747082E-1,-1.4914709E0,-5.671555E-1,8.919062E-1,1.45405E0,-8.288302E-2,7.1723694E-3,1.420013E-1,2.9352E-2,2.2850315E-1,3.7423548E-1,4.20691E-1,7.1453637E-1,-9.056655E-2,-3.5682374E-1,-1.436301E-1,-9.056655E-2,7.2744064E-2,4.702653E-1,-7.519253E-2,5.4171085E-2],"split_indices":[1,22,22,15,14,8,6,22,8,11,9,6,22,22,0,0,0,0,0,0,0,0,0,0,0,0,0,0,0,0,0],"split_type":[0,0,0,0,0,0,0,0,0,0,0,0,0,0,0,0,0,0,0,0,0,0,0,0,0,0,0,0,0,0,0],"sum_hessian":[6.19E2,2.42E2,3.77E2,1.69E2,7.3E1,1.96E2,1.81E2,1.12E2,5.7E1,2.9E1,4.4E1,2E1,1.76E2,1.9E1,1.62E2,5.7E1,5.5E1,2.1E1,3.6E1,1.3E1,1.6E1,1.3E1,3.1E1,3E0,1.7E1,1.11E2,6.5E1,1.6E1,3E0,1.55E2,7E0],"tree_param":{"num_deleted":"0","num_feature":"23","num_nodes":"31","size_leaf_vector":"1"}},{"base_weights":[3.273436E-2,2.8076165E0,-1.7419026E0,1.2340283E-1,8.398103E0,-2.598799E0,-7.6081496E-1,-1.0742655E0,8.7918776E-1,4.6424723E0,1.3066292E1,-5.4188724E0,-2.0576437E0,2.858962E0,-1.2017592E0,-1.11869924E-1,-1.5347974E-2,9.032618E-2,-4.876943E-3,3.8024592E-1,2.1303764E-1,4.4271907E-1,7.213153E-1,-1.869129E-1,-3.3866927E-1,-1.3572846E-1,-8.399035E-2,5.1074434E-2,3.8813934E-1,-6.9370195E-2,4.143007E-2],"categories":[],"categories_nodes":[],"categories_segments":[],"categories_sizes":[],"default_left":[0,0,0,0,0,0,0,0,0,0,0,0,0,0,0,0,0,0,0,0,0,0,0,0,0,0,0,0,0,0,0],"id":5,"left_children":[1,3,5,7,9,11,13,15,17,19,21,23,25,27,29,-1,-1,-1,-1,-1,-1,-1,-1,-1,-1,-1,-1,-1,-1,-1,-1],"loss_changes":[3.0877864E3,3.6623127E3,3.162246E2,1.56519E2,1.2646196E3,2.8825037E2,3.0071188E2,5.703338E1,1.2377286E2,1.9762097E2,8.100488E1,2.538153E1,5.341913E1,1.6742009E2,7.8386734E1,0E0,0E0,0E0,0E0,0E0,0E0,0E0,0E0,0E0,0E0,0E0,0E0,0E0,0E0,0E0,0E0],"parents":[2147483647,0,0,1,1,2,2,3,3,4,4,5,5,6,6,7,7,8,8,9,9,10,10,11,11,12,12,13,13,14,14],"right_children":[2,4,6,8,10,12,14,16,18,20,22,24,26,28,30,-1,-1,-1,-1,-1,-1,-1,-1,-1,-1,-1,-1,-1,-1,-1,-1],"split_conditions":[-4.832207E-1,8.919062E-1,1.6237538E-1,-1.0620071E0,-7.272912E-1,-1.4055304E-1,-5.9206957E-1,-7.495382E-1,-6.3335824E-1,-1.9185358E-1,-8.202904E-1,1.6600253E-1,-1.0065331E0,8.919062E-1,1.4927325E0,-1.11869924E-1,-1.5347974E-2,9.032618E-2,-4.876943E-3,3.8024592E-1,2.1303764E-1,4.4271907E-1,7.213153E-1,-1.869129E-1,-3.3866927E-1,-1.3572846E-1,-8.399035E-2,5.1074434E-2,3.8813934E-1,-6.9370195E-2,4.143007E-2],"split_indices":[1,22,22,18,14,18,6,22,10,20,11,5,5,22,16,0,0,0,0,0,0,0,0,0,0,0,0,0,0,0,0],"split_type":[0,0,0,0,0,0,0,0,0,0,0,0,0,0,0,0,0,0,0,0,0,0,0,0,0,0,0,0,0,0,0],"sum_hessian":[6.21E2,2.42E2,3.79E2,1.65E2,7.7E1,2E2,1.79E2,6.3E1,1.02E2,4.5E1,3.2E1,2.9E1,1.71E2,1.8E1,1.61E2,2.3E1,4E1,5.9E1,4.3E1,1.9E1,2.6E1,7E0,2.5E1,1.6E1,1.3E1,7.5E1,9.6E1,1.5E1,3E0,1.51E2,1E1],"tree_param":{"num_deleted":"0","num_feature":"23","num_nodes":"31","size_leaf_vector":"1"}},{"base_weights":[-5.823388E-2,1.950472E0,-1.5399557E0,4.5812646E-1,5.758356E0,-2.0265334E0,-9.127204E-1,2.0525813E-1,3.2269378E0,4.2823386E0,1.2341389E1,-7.348134E-2,-2.298281E0,-1.3271534E0,2.0525813E-1,8.58049E-2,1.0262907E-2,2.5954273E-1,8.58049E-2,3.5510767E-1,6.7179136E-2,1.0262907E-2,7.361068E-1,-9.41977E-2,-1.4246276E-1,-7.348134E-2,1.0262907E-2,1.0262907E-2,-4.400665E-2],"categories":[],"categories_nodes":[],"categories_segments":[],"categories_sizes":[],"default_left":[0,0,0,0,0,0,0,0,0,0,0,0,0,0,0,0,0,0,0,0,0,0,0,0,0,0,0,0,0],"id":6,"left_children":[1,3,5,7,9,11,13,15,17,19,21,-1,23,25,27,-1,-1,-1,-1,-1,-1,-1,-1,-1,-1,-1,-1,-1,-1],"loss_changes":[1.8101726E3,1.457488E3,1.0267432E2,4.226319E2,5.990073E2,4.180255E1,9.335318E1,8.6670105E1,2.529719E2,4.945747E2,3.4464648E2,0E0,4.9565613E1,6.971695E1,7.9768887E0,0E0,0E0,0E0,0E0,0E0,0E0,0E0,0E0,0E0,0E0,0E0,0E0,0E0,0E0],"parents":[2147483647,0,0,1,1,2,2,3,3,4,4,5,5,6,6,7,7,8,8,9,9,10,10,12,12,13,13,14,14],"right_children":[2,4,6,8,10,12,14,16,18,20,22,-1,24,26,28,-1,-1,-1,-1,-1,-1,-1,-1,-1,-1,-1,-1,-1,-1],"split_conditions":[-4.382658E-1,-2.4363732E-1,8.228552E-1,1.1171411E-1,1.5347534E-1,4.7094977E-1,-3.772755E-1,-1.2428E0,-1.3753141E-1,9.1417365E-2,-9.3031996E-1,-7.348134E-2,-3.0565166E-1,2.8281589E0,1.3256387E0,8.58049E-2,1.0262907E-2,2.5954273E-1,8.58049E-2,3.5510767E-1,6.7179136E-2,1.0262907E-2,7.361068E-1,-9.41977E-2,-1.4246276E-1,-7.348134E-2,1.0262907E-2,1.0262907E-2,-4.400665E-2],"split_indices":[7,11,3,15,10,7,5,7,10,11,19,0,20,3,9,0,0,0,0,0,0,0,0,0,0,0,0,0,0],"split_type":[0,0,0,0,0,0,0,0,0,0,0,0,0,0,0,0,0,0,0,0,0,0,0,0,0,0,0,0,0],"sum_hessian":[6.02E2,2.55E2,3.47E2,1.85E2,7E1,1.92E2,1.55E2,1.4E2,4.5E1,6E1,1E1,4E1,1.52E2,1.21E2,3.4E1,2.9E1,1.11E2,2.8E1,1.7E1,2.9E1,3.1E1,2E0,8E0,6.6E1,8.6E1,1.13E2,8E0,3.1E1,3E0],"tree_param":{"num_deleted":"0","num_feature":"23","num_nodes":"29","size_leaf_vector":"1"}},{"base_weights":[8.7107345E-2,2.438886E0,-1.4743278E0,2.0621414E0,5.446488E-1,-4.7010202E0,-1.2717595E0,3.9554234E0,1.2651025E-1,-3.130324E-1,-1.493195E-1,3.0495865E0,-1.6075518E0,5.781287E-2,3.2387793E-1,1.12218715E-1,-4.425737E-2,6.1924916E-2,3.734342E-1,-1.2306833E-1,-5.5537432E-2],"categories":[],"categories_nodes":[],"categories_segments":[],"categories_sizes":[],"default_left":[0,0,0,0,0,0,0,0,0,0,0,0,0,0,0,0,0,0,0,0,0],"id":7,"left_children":[1,3,5,7,-1,9,11,13,15,-1,-1,17,19,-1,-1,-1,-1,-1,-1,-1,-1],"loss_changes":[2.288869E3,7.530393E2,2.3486945E2,8.7848364E2,0E0,6.2913086E1,5.2881396E2,1.2361853E3,2.7058743E2,0E0,0E0,1.9219589E2,1.3486761E2,0E0,0E0,0E0,0E0,0E0,0E0,0E0,0E0],"parents":[2147483647,0,0,1,1,2,2,3,3,5,5,6,6,7,7,8,8,11,11,12,12],"right_children":[2,4,6,8,-1,10,12,14,16,-1,-1,18,20,-1,-1,-1,-1,-1,-1,-1,-1],"split_conditions":[-4.8888898E-1,-8.7558967E-1,-1.0371087E0,-1.08349E0,5.446488E-1,-4.1376406E-1,-5.9206957E-1,4.5404214E-1,9.044907E-3,-3.130324E-1,-1.493195E-1,2.2692266E-1,2.3074922E-1,5.781287E-2,3.2387793E-1,1.12218715E-1,-4.425737E-2,6.1924916E-2,3.734342E-1,-1.2306833E-1,-5.5537432E-2],"split_indices":[1,0,16,1,0,12,6,5,9,0,0,8,13,0,0,0,0,0,0,0,0],"split_type":[0,0,0,0,0,0,0,0,0,0,0,0,0,0,0,0,0,0,0,0,0],"sum_hessian":[6.17E2,2.46E2,3.71E2,2.38E2,8E0,1.9E1,3.52E2,1.19E2,1.19E2,1.1E1,8E0,2.4E1,3.28E2,7.2E1,4.7E1,3.8E1,8.1E1,1.9E1,5E0,1.17E2,2.11E2],"tree_param":{"num_deleted":"0","num_feature":"23","num_nodes":"21","size_leaf_vector":"1"}},{"base_weights":[1.5169123E-1,-1.1810728E0,2.8594193E0,1.7948918E-1,-1.7661556E0,7.166121E0,8.3917326E-1,-5.923095E-1,8.3917326E-1,-2.4937127E0,-8.458806E-1,2.0013236E-1,8.384071E0,4.002647E0,8.3917326E-1,5.1012193E-3,-6.564092E-2,6.171595E-3,4.1958664E-2,-2.3610555E-1,-9.646467E-2,1.7211523E-2,-7.801064E-2,3.0966797E-1,6.2161094E-1,2.0013236E-1,4.1958664E-2,4.1958664E-2,6.451153E-2],"categories":[],"categories_nodes":[],"categories_segments":[],"categories_sizes":[],"default_left":[0,0,0,0,0,0,0,0,0,0,0,0,0,0,0,0,0,0,0,0,0,0,0,0,0,0,0,0,0],"id":8,"left_children":[1,3,5,7,9,11,13,15,17,19,21,-1,23,25,27,-1,-1,-1,-1,-1,-1,-1,-1,-1,-1,-1,-1,-1,-1],"loss_changes":[2.2608608E3,3.3649506E2,2.8492224E3,1.3602681E2,1.9176746E2,5.278574E2,2.0089554E2,4.9148922E1,8.602089E0,1.8719891E2,1.1747515E2,0E0,8.463115E2,1.0485413E1,1.7316284E0,0E0,0E0,0E0,0E0,0E0,0E0,0E0,0E0,0E0,0E0,0E0,0E0,0E0,0E0],"parents":[2147483647,0,0,1,1,2,2,3,3,4,4,5,5,6,6,7,7,8,8,9,9,10,10,12,12,13,13,14,14],"right_children":[2,4,6,8,10,12,14,16,18,20,22,-1,24,26,28,-1,-1,-1,-1,-1,-1,-1,-1,-1,-1,-1,-1,-1,-1],"split_conditions":[7.095235E-1,-3.6432064E-1,-4.4969168E-1,2.196975E-2,-3.8477278E-1,8.919062E-1,-1.1639978E0,-7.3850346E-1,-1.2856717E0,-1.0371087E0,2.1158598E-1,2.0013236E-1,-7.272912E-1,8.228045E-1,1.8255793E0,5.1012193E-3,-6.564092E-2,6.171595E-3,4.1958664E-2,-2.3610555E-1,-9.646467E-2,1.7211523E-2,-7.801064E-2,3.0966797E-1,6.2161094E-1,2.0013236E-1,4.1958664E-2,4.1958664E-2,6.451153E-2],"split_indices":[22,10,6,15,22,22,10,13,1,16,1,0,14,5,13,0,0,0,0,0,0,0,0,0,0,0,0,0,0],"split_type":[0,0,0,0,0,0,0,0,0,0,0,0,0,0,0,0,0,0,0,0,0,0,0,0,0,0,0,0,0],"sum_hessian":[6.2E2,4.16E2,2.04E2,1.25E2,2.91E2,9E1,1.14E2,9E1,3.5E1,1.6E2,1.31E2,1.5E1,7.5E1,4E0,1.1E2,4.6E1,4.4E1,6E0,2.9E1,2.9E1,1.31E2,4.9E1,8.2E1,4.4E1,3.1E1,3E0,1E0,1.01E2,9E0],"tree_param":{"num_deleted":"0","num_feature":"23","num_nodes":"29","size_leaf_vector":"1"}},{"base_weights":[-1.789486E-1,-1.2310618E0,2.0715573E0,-1.9894693E0,-3.7242004E-1,5.455962E0,4.2024773E-1,-1.1809447E0,-2.5562744E0,-1.1809447E0,4.2024773E-1,3.9758122E0,1.0336921E1,4.2024773E-1,1.3789161E0,-1.2919398E-1,-5.9047233E-2,-2.498039E-1,-8.73157E-2,-5.9047233E-2,-2.1114707E-2,2.1012386E-2,-5.9047233E-2,3.3088747E-1,1.4690524E-1,3.5781834E-1,6.729227E-1,3.766557E-2,2.1012386E-2,2.1012386E-2,7.344925E-2],"categories":[],"categories_nodes":[],"categories_segments":[],"categories_sizes":[],"default_left":[0,0,0,0,0,0,0,0,0,0,0,0,0,0,0,0,0,0,0,0,0,0,0,0,0,0,0,0,0,0,0],"id":9,"left_children":[1,3,5,7,9,11,13,15,17,19,21,23,25,27,29,-1,-1,-1,-1,-1,-1,-1,-1,-1,-1,-1,-1,-1,-1,-1,-1],"loss_changes":[1.4714319E3,2.732245E2,1.802206E3,1.4386243E2,1.877783E2,5.85864E2,1.16736145E1,2.757177E1,2.885067E2,2.15932E1,4.0349808E1,4.7700378E2,1.7809326E2,1.2003708E0,7.159233E-1,0E0,0E0,0E0,0E0,0E0,0E0,0E0,0E0,0E0,0E0,0E0,0E0,0E0,0E0,0E0,0E0],"parents":[2147483647,0,0,1,1,2,2,3,3,4,4,5,5,6,6,7,7,8,8,9,9,10,10,11,11,12,12,13,13,14,14],"right_children":[2,4,6,8,10,12,14,16,18,20,22,24,26,28,30,-1,-1,-1,-1,-1,-1,-1,-1,-1,-1,-1,-1,-1,-1,-1,-1],"split_conditions":[7.095235E-1,-3.8477278E-1,-4.382658E-1,-6.869673E-1,-2.2538161E-1,-8.8907146E-1,1.8255793E0,-9.831671E-1,8.584034E-3,1.6237538E-1,1.6289158E0,-4.606528E-1,2.2692266E-1,-1.5574306E0,9.7867274E-1,-1.2919398E-1,-5.9047233E-2,-2.498039E-1,-8.73157E-2,-5.9047233E-2,-2.1114707E-2,2.1012386E-2,-5.9047233E-2,3.3088747E-1,1.4690524E-1,3.5781834E-1,6.729227E-1,3.766557E-2,2.1012386E-2,2.1012386E-2,7.344925E-2],"split_indices":[22,22,7,1,5,0,13,15,18,22,20,8,8,20,16,0,0,0,0,0,0,0,0,0,0,0,0,0,0,0,0],"split_type":[0,0,0,0,0,0,0,0,0,0,0,0,0,0,0,0,0,0,0,0,0,0,0,0,0,0,0,0,0,0,0],"sum_hessian":[6.15E2,4.2E2,1.95E2,2.21E2,1.99E2,9E1,1.05E2,6.9E1,1.52E2,8.2E1,1.17E2,7.2E1,1.8E1,9.6E1,9E0,1.2E1,5.7E1,3.5E1,1.17E2,3.9E1,4.3E1,1.09E2,8E0,4E1,3.2E1,8E0,1E1,6E0,9E1,1E0,8E0],"tree_param":{"num_deleted":"0","num_feature":"23","num_nodes":"31","size_leaf_vector":"1"}},{"base_weights":[-1.4778438E-1,1.5340061E0,-1.4687934E0,-2.0996356E-1,5.7463374E0,-5.118589E0,-1.2676224E0,-8.898779E-1,1.22824E0,2.768187E0,8.1268425E0,-2.9216763E-1,-1.5965529E-1,-2.321292E0,-7.5322855E-1,-7.334761E-2,-8.744623E-3,1.3840936E-1,8.459053E-3,2.6755455E-1,1.3840936E-1,6.974777E-1,2.8182504E-1,-1.4139012E-1,-9.192642E-2,-4.7722418E-2,8.751916E-2],"categories":[],"categories_nodes":[],"categories_segments":[],"categories_sizes":[],"default_left":[0,0,0,0,0,0,0,0,0,0,0,0,0,0,0,0,0,0,0,0,0,0,0,0,0,0,0],"id":10,"left_children":[1,3,5,7,9,11,13,15,17,19,21,-1,-1,23,25,-1,-1,-1,-1,-1,-1,-1,-1,-1,-1,-1,-1],"loss_changes":[1.365364E3,1.9929158E3,2.423139E2,1.9341212E2,8.680896E2,2.3387604E1,1.7481866E2,5.3812134E1,1.10637375E2,9.854248E0,6.436094E2,0E0,0E0,1.5545349E1,1.1929445E2,0E0,0E0,0E0,0E0,0E0,0E0,0E0,0E0,0E0,0E0,0E0,0E0],"parents":[2147483647,0,0,1,1,2,2,3,3,4,4,5,5,6,6,7,7,8,8,9,9,10,10,13,13,14,14],"right_children":[2,4,6,8,10,12,14,16,18,20,22,-1,-1,24,26,-1,-1,-1,-1,-1,-1,-1,-1,-1,-1,-1,-1],"split_conditions":[-2.8513327E-1,8.919062E-1,-1.0563556E0,3.9918624E-2,5.1838124E-1,-3.8477278E-1,-5.671555E-1,-2.0239006E-1,-1.1983496E0,-1.3771361E0,-1.1536127E0,-2.9216763E-1,-1.5965529E-1,6.098478E-1,1.4844126E0,-7.334761E-2,-8.744623E-3,1.3840936E-1,8.459053E-3,2.6755455E-1,1.3840936E-1,6.974777E-1,2.8182504E-1,-1.4139012E-1,-9.192642E-2,-4.7722418E-2,8.751916E-2],"split_indices":[1,22,16,15,5,22,22,22,8,7,1,0,0,12,0,0,0,0,0,0,0,0,0,0,0,0,0],"split_type":[0,0,0,0,0,0,0,0,0,0,0,0,0,0,0,0,0,0,0,0,0,0,0,0,0,0,0],"sum_hessian":[6.08E2,2.67E2,3.41E2,1.9E2,7.7E1,1.5E1,3.26E2,1.3E2,6E1,2.4E1,5.3E1,1.3E1,2E0,1.04E2,2.22E2,7E1,6E1,2.3E1,3.7E1,1E0,2.3E1,1.3E1,4E1,4.5E1,5.9E1,2.07E2,1.5E1],"tree_param":{"num_deleted":"0","num_feature":"23","num_nodes":"27","size_leaf_vector":"1"}},{"base_weights":[-1.0737349E-1,1.7357405E0,-1.2170866E0,-2.2004849E-1,6.646391E0,-1.9916906E0,-3.335706E-1,7.1392125E-1,-6.7984486E-1,3.2131712E0,9.060119E0,-2.521265E-1,-1.5384369E0,2.0860677E0,-9.0136176E-1,-1.2633698E-2,8.844001E-2,-5.117742E-2,6.3434824E-2,3.4413275E-1,1.6065857E-1,5.211846E-1,1.6065857E-1,-9.6904196E-2,-5.8131527E-2,5.1909845E-2,2.6845333E-1,-5.8131527E-2,-1.9930545E-2],"categories":[],"categories_nodes":[],"categories_segments":[],"categories_sizes":[],"default_left":[0,0,0,0,0,0,0,0,0,0,0,0,0,0,0,0,0,0,0,0,0,0,0,0,0,0,0,0,0],"id":11,"left_children":[1,3,5,7,9,11,13,15,17,19,21,-1,23,25,27,-1,-1,-1,-1,-1,-1,-1,-1,-1,-1,-1,-1,-1,-1],"loss_changes":[1.3020446E3,2.3054116E3,2.695747E2,7.714705E1,7.210686E2,2.774712E2,2.6616727E2,6.3144615E1,8.39341E1,1.21341125E2,3.6736157E2,0E0,4.398639E1,1.1493251E2,4.4151413E1,0E0,0E0,0E0,0E0,0E0,0E0,0E0,0E0,0E0,0E0,0E0,0E0,0E0,0E0],"parents":[2147483647,0,0,1,1,2,2,3,3,4,4,5,5,6,6,7,7,8,8,9,9,10,10,12,12,13,13,14,14],"right_children":[2,4,6,8,10,12,14,16,18,20,22,-1,24,26,28,-1,-1,-1,-1,-1,-1,-1,-1,-1,-1,-1,-1,-1,-1],"split_conditions":[-4.8888898E-1,8.919062E-1,1.6237538E-1,-1.4086525E0,-6.4905345E-1,-4.1219556E-1,3.3155513E-1,-1.1809617E0,2.892591E-1,-1.2137383E0,1.7422374E-1,-2.521265E-1,-5.671555E-1,8.919062E-1,7.069384E-1,-1.2633698E-2,8.844001E-2,-5.117742E-2,6.3434824E-2,3.4413275E-1,1.6065857E-1,5.211846E-1,1.6065857E-1,-9.6904196E-2,-5.8131527E-2,5.1909845E-2,2.6845333E-1,-5.8131527E-2,-1.9930545E-2],"split_indices":[1,22,22,8,11,18,17,18,12,7,11,0,22,22,0,0,0,0,0,0,0,0,0,0,0,0,0,0,0],"split_type":[0,0,0,0,0,0,0,0,0,0,0,0,0,0,0,0,0,0,0,0,0,0,0,0,0,0,0,0,0],"sum_hessian":[6.3E2,2.36E2,3.94E2,1.7E2,6.6E1,2.08E2,1.86E2,5.5E1,1.15E2,2.3E1,4.3E1,2.4E1,1.84E2,3.4E1,1.52E2,2.9E1,2.6E1,9.9E1,1.6E1,8E0,1.5E1,3.5E1,8E0,1.18E2,6.6E1,2.8E1,6E0,5.4E1,9.8E1],"tree_param":{"num_deleted":"0","num_feature":"23","num_nodes":"29","size_leaf_vector":"1"}},{"base_weights":[-7.390374E-2,1.9708441E0,-1.2977711E0,8.569205E-2,6.241582E0,-3.8039632E0,-1.100528E0,-7.378209E-1,1.4287302E0,3.163637E0,8.660994E0,-2.71059E-1,-1.2261229E-1,1.3531325E0,-1.4220942E0,9.284577E-3,-6.0958423E-2,1.4511919E-1,2.2985555E-2,2.9561576E-1,1.5818185E-1,2.9561576E-1,5.044562E-1,-1.7240435E-3,1.3905944E-1,-1.0513245E-1,-5.421847E-2],"categories":[],"categories_nodes":[],"categories_segments":[],"categories_sizes":[],"default_left":[0,0,0,0,0,0,0,0,0,0,0,0,0,0,0,0,0,0,0,0,0,0,0,0,0,0,0],"id":12,"left_children":[1,3,5,7,9,11,13,15,17,19,21,-1,-1,23,25,-1,-1,-1,-1,-1,-1,-1,-1,-1,-1,-1,-1],"loss_changes":[1.6049243E3,1.9255029E3,1.9166785E2,1.927705E2,6.531797E2,8.989523E1,3.023583E2,4.949603E1,9.065605E1,7.8627335E1,2.035603E2,0E0,0E0,1.0047694E2,7.208966E1,0E0,0E0,0E0,0E0,0E0,0E0,0E0,0E0,0E0,0E0,0E0,0E0],"parents":[2147483647,0,0,1,1,2,2,3,3,4,4,5,5,6,6,7,7,8,8,9,9,10,10,13,13,14,14],"right_children":[2,4,6,8,10,12,14,16,18,20,22,-1,-1,24,26,-1,-1,-1,-1,-1,-1,-1,-1,-1,-1,-1,-1],"split_conditions":[-4.832207E-1,8.919062E-1,-1.0010431E0,-4.9825735E-2,-9.928966E-1,-4.1376406E-1,3.458066E-1,-8.129078E-1,-8.832532E-1,-4.9178805E-2,4.5005193E-1,-2.71059E-1,-1.2261229E-1,5.271408E-1,-5.671555E-1,9.284577E-3,-6.0958423E-2,1.4511919E-1,2.2985555E-2,2.9561576E-1,1.5818185E-1,2.9561576E-1,5.044562E-1,-1.7240435E-3,1.3905944E-1,-1.0513245E-1,-5.421847E-2],"split_indices":[1,22,16,15,14,12,7,13,13,9,5,0,0,22,22,0,0,0,0,0,0,0,0,0,0,0,0],"split_type":[0,0,0,0,0,0,0,0,0,0,0,0,0,0,0,0,0,0,0,0,0,0,0,0,0,0,0],"sum_hessian":[6.35E2,2.37E2,3.98E2,1.66E2,7.1E1,2.6E1,3.72E2,1.03E2,6.3E1,2.8E1,4.3E1,1.5E1,1.1E1,4.2E1,3.3E2,3.5E1,6.8E1,2.3E1,4E1,8E0,2E1,1E1,3.3E1,2.1E1,2.1E1,1.05E2,2.25E2],"tree_param":{"num_deleted":"0","num_feature":"23","num_nodes":"27","size_leaf_vector":"1"}},{"base_weights":[-5.210272E-2,1.7408328E0,-1.2172774E0,-5.5295143E-2,6.135646E0,-1.7975656E0,-5.3840816E-1,-7.7830535E-1,1.2962731E0,3.3351247E0,9.894052E0,-4.090601E0,-1.4610384E0,2.979794E0,-9.9120224E-1,-2.9175622E-2,-1.4591636E-1,1.4337014E-1,1.7517792E-2,2.620296E-1,1.5200877E-1,5.717217E-1,3.3072942E-1,-2.473272E-1,-1.38791E-1,-1.084667E-1,-5.8399346E-2,4.9714796E-2,3.8370833E-1,-5.8399346E-2,-2.3865608E-2],"categories":[],"categories_nodes":[],"categories_segments":[],"categories_sizes":[],"default_left":[0,0,0,0,0,0,0,0,0,0,0,0,0,0,0,0,0,0,0,0,0,0,0,0,0,0,0,0,0,0,0],"id":13,"left_children":[1,3,5,7,9,11,13,15,17,19,21,23,25,27,29,-1,-1,-1,-1,-1,-1,-1,-1,-1,-1,-1,-1,-1,-1,-1,-1],"loss_changes":[1.3381835E3,1.9969644E3,1.5042047E2,1.8143396E2,7.0332275E2,1.4973877E2,3.0071353E2,4.8145935E1,9.224397E1,1.5571664E2,1.737019E2,2.790213E1,5.3075165E1,1.9234927E2,4.3146072E1,0E0,0E0,0E0,0E0,0E0,0E0,0E0,0E0,0E0,0E0,0E0,0E0,0E0,0E0,0E0,0E0],"parents":[2147483647,0,0,1,1,2,2,3,3,4,4,5,5,6,6,7,7,8,8,9,9,10,10,11,11,12,12,13,13,14,14],"right_children":[2,4,6,8,10,12,14,16,18,20,22,24,26,28,30,-1,-1,-1,-1,-1,-1,-1,-1,-1,-1,-1,-1,-1,-1,-1,-1],"split_conditions":[-4.832207E-1,8.919062E-1,1.6237538E-1,-1.3927993E-2,-7.272912E-1,-5.1852334E-1,-5.9206957E-1,1.5151176E0,-1.1983496E0,-1.3753141E-1,-6.1053354E-1,4.39418E-1,2.765259E-1,8.919062E-1,5.7232285E-1,-2.9175622E-2,-1.4591636E-1,1.4337014E-1,1.7517792E-2,2.620296E-1,1.5200877E-1,5.717217E-1,3.3072942E-1,-2.473272E-1,-1.38791E-1,-1.084667E-1,-5.8399346E-2,4.9714796E-2,3.8370833E-1,-5.8399346E-2,-2.3865608E-2],"split_indices":[1,22,22,15,14,12,6,20,8,10,6,8,3,22,8,0,0,0,0,0,0,0,0,0,0,0,0,0,0,0,0],"split_type":[0,0,0,0,0,0,0,0,0,0,0,0,0,0,0,0,0,0,0,0,0,0,0,0,0,0,0,0,0,0,0],"sum_hessian":[6.34E2,2.49E2,3.85E2,1.78E2,7.1E1,2.05E2,1.8E2,1.17E2,6.1E1,4.3E1,2.8E1,2.3E1,1.82E2,1.9E1,1.61E2,1.1E2,7E0,2.1E1,4E1,3.4E1,9E0,2.3E1,5E0,1.6E1,7E0,6.8E1,1.14E2,1.5E1,4E0,5.4E1,1.07E2],"tree_param":{"num_deleted":"0","num_feature":"23","num_nodes":"31","size_leaf_vector":"1"}},{"base_weights":[3.70038E-2,1.8635787E0,-1.1103683E0,2.4321763E-4,5.837037E0,-3.8738008E0,-9.5481133E-1,-6.7994654E-1,1.2037414E0,2.9186401E0,8.131557E0,-2.4239273E-1,-1.2071531E-1,1.4304975E0,-1.1139576E0,-6.558612E-2,1.507079E-3,1.2804733E-1,1.8968968E-2,1.45932E-1,2.553534E-1,5.947305E-1,2.7625495E-1,1.0630201E-2,2.8867257E-1,-6.754377E-2,7.913497E-3],"categories":[],"categories_nodes":[],"categories_segments":[],"categories_sizes":[],"default_left":[0,0,0,0,0,0,0,0,0,0,0,0,0,0,0,0,0,0,0,0,0,0,0,0,0,0,0],"id":14,"left_children":[1,3,5,7,9,11,13,15,17,19,21,-1,-1,23,25,-1,-1,-1,-1,-1,-1,-1,-1,-1,-1,-1,-1],"loss_changes":[1.3520526E3,1.8382708E3,1.6457944E2,1.4590944E2,5.919077E2,4.8364563E1,1.487843E2,5.203231E1,6.907591E1,8.3124146E1,3.980149E2,0E0,0E0,1.27612274E2,1.3803857E2,0E0,0E0,0E0,0E0,0E0,0E0,0E0,0E0,0E0,0E0,0E0,0E0],"parents":[2147483647,0,0,1,1,2,2,3,3,4,4,5,5,6,6,7,7,8,8,9,9,10,10,13,13,14,14],"right_children":[2,4,6,8,10,12,14,16,18,20,22,-1,-1,24,26,-1,-1,-1,-1,-1,-1,-1,-1,-1,-1,-1,-1],"split_conditions":[-4.832207E-1,8.919062E-1,-1.0371087E0,-1.3927993E-2,-9.928966E-1,-2.4726333E-1,-5.9206957E-1,-2.0239006E-1,-1.2771457E0,-6.763365E-1,-1.9185358E-1,-2.4239273E-1,-1.2071531E-1,8.919062E-1,1.3677884E0,-6.558612E-2,1.507079E-3,1.2804733E-1,1.8968968E-2,1.45932E-1,2.553534E-1,5.947305E-1,2.7625495E-1,1.0630201E-2,2.8867257E-1,-6.754377E-2,7.913497E-3],"split_indices":[1,22,16,15,14,15,6,22,8,11,20,0,0,22,16,0,0,0,0,0,0,0,0,0,0,0,0],"split_type":[0,0,0,0,0,0,0,0,0,0,0,0,0,0,0,0,0,0,0,0,0,0,0,0,0,0,0],"sum_hessian":[6.38E2,2.46E2,3.92E2,1.69E2,7.7E1,1.8E1,3.74E2,1.08E2,6.1E1,3.2E1,4.5E1,1.5E1,3E0,2.2E1,3.52E2,5.7E1,5.1E1,2.1E1,4E1,1.4E1,1.8E1,1.7E1,2.8E1,1.9E1,3E0,3.1E2,4.2E1],"tree_param":{"num_deleted":"0","num_feature":"23","num_nodes":"27","size_leaf_vector":"1"}},{"base_weights":[1.5232623E-2,1.5251293E0,-1.1113021E0,2.0691359E-1,5.6695633E0,-1.0046042E0,-1.598613E-1,2.0691359E-1,1.4198263E0,2.9382384E0,8.377643E0,-1.4282209E0,-4.4042644E-1,1.034568E-2,4.06685E-2,1.4691192E-1,4.06685E-2,3.824621E-1,1.4691192E-1,1.4691192E-1,4.6786377E-1,-7.644933E-2,1.034568E-2,-7.494771E-2,3.6132613E-3],"categories":[],"categories_nodes":[],"categories_segments":[],"categories_sizes":[],"default_left":[0,0,0,0,0,0,0,0,0,0,0,0,0,0,0,0,0,0,0,0,0,0,0,0,0],"id":15,"left_children":[1,3,5,7,9,11,-1,13,15,17,19,21,23,-1,-1,-1,-1,-1,-1,-1,-1,-1,-1,-1,-1],"loss_changes":[1.0670375E3,1.9016423E3,7.501056E1,9.0609634E1,5.8228345E2,8.057669E1,0E0,9.006382E0,1.1851245E2,3.0286523E2,3.2575732E2,4.4921265E1,8.585236E1,0E0,0E0,0E0,0E0,0E0,0E0,0E0,0E0,0E0,0E0,0E0,0E0],"parents":[2147483647,0,0,1,1,2,2,3,3,4,4,5,5,7,7,8,8,9,9,10,10,11,11,12,12],"right_children":[2,4,6,8,10,12,-1,14,16,18,20,22,24,-1,-1,-1,-1,-1,-1,-1,-1,-1,-1,-1,-1],"split_conditions":[-3.4781873E-1,8.919062E-1,1.414841E0,1.1171411E-1,-8.9786655E-1,-5.4427046E-1,-1.598613E-1,2.4904792E0,-8.832532E-1,-7.60844E-1,-6.763365E-1,1.3660142E0,-5.671555E-1,1.034568E-2,4.06685E-2,1.4691192E-1,4.06685E-2,3.824621E-1,1.4691192E-1,1.4691192E-1,4.6786377E-1,-7.644933E-2,1.034568E-2,-7.494771E-2,3.6132613E-3],"split_indices":[7,22,9,15,19,9,0,5,13,20,11,13,22,0,0,0,0,0,0,0,0,0,0,0,0],"split_type":[0,0,0,0,0,0,0,0,0,0,0,0,0,0,0,0,0,0,0,0,0,0,0,0,0],"sum_hessian":[6.2E2,2.65E2,3.55E2,1.88E2,7.7E1,3.41E2,1.4E1,1.3E2,5.8E1,3.9E1,3.8E1,1.92E2,1.49E2,1.28E2,2E0,2.1E1,3.7E1,1.2E1,2.7E1,3E0,3.5E1,1.85E2,7E0,4.8E1,1.01E2],"tree_param":{"num_deleted":"0","num_feature":"23","num_nodes":"25","size_leaf_vector":"1"}},{"base_weights":[4.1721277E-2,2.9327772E0,-5.477882E-1,1.8101788E-1,8.03838E0,-1.0258123E0,1.1796916E0,-6.5435815E-1,1.4553474E0,4.109699E0,1.0649044E1,1.0387726E0,-1.1872238E0,2.553344E-1,8.387239E0,-5.414467E-2,2.0024732E-2,1.4480923E-1,3.6075566E-2,2.0548494E-1,4.4723964E-1,5.6449956E-1,2.0548494E-1,-1.4524946E-2,1.281031E-1,-1.2895262E-1,-3.6220986E-2,-1.8158527E-1,4.2287093E-2,5.1607704E-1,-4.378552E-2],"categories":[],"categories_nodes":[],"categories_segments":[],"categories_sizes":[],"default_left":[0,0,0,0,0,0,0,0,0,0,0,0,0,0,0,0,0,0,0,0,0,0,0,0,0,0,0,0,0,0,0],"id":16,"left_children":[1,3,5,7,9,11,13,15,17,19,21,23,25,27,29,-1,-1,-1,-1,-1,-1,-1,-1,-1,-1,-1,-1,-1,-1,-1,-1],"loss_changes":[1.103231E3,1.5308267E3,4.45721E2,8.427475E1,4.9676904E2,1.4464612E2,7.748325E2,2.747953E1,2.8247879E1,9.278165E1,1.445791E2,7.015852E1,2.4840851E2,2.5276958E2,2.6606848E2,0E0,0E0,0E0,0E0,0E0,0E0,0E0,0E0,0E0,0E0,0E0,0E0,0E0,0E0,0E0,0E0],"parents":[2147483647,0,0,1,1,2,2,3,3,4,4,5,5,6,6,7,7,8,8,9,9,10,10,11,11,12,12,13,13,14,14],"right_children":[2,4,6,8,10,12,14,16,18,20,22,24,26,28,30,-1,-1,-1,-1,-1,-1,-1,-1,-1,-1,-1,-1,-1,-1,-1,-1],"split_conditions":[-1.08349E0,8.919062E-1,9.2165554E-1,-1.03672355E-1,3.3751383E-1,-1.0845708E0,3.126293E-1,-1.1585525E0,-8.832532E-1,-6.4905345E-1,1.1251503E0,-8.3835936E-1,-3.415271E-1,-1.881935E0,-2.6379955E-1,-5.414467E-2,2.0024732E-2,1.4480923E-1,3.6075566E-2,2.0548494E-1,4.4723964E-1,5.6449956E-1,2.0548494E-1,-1.4524946E-2,1.281031E-1,-1.2895262E-1,-3.6220986E-2,-1.8158527E-1,4.2287093E-2,5.1607704E-1,-4.378552E-2],"split_indices":[1,22,5,15,5,10,8,1,13,11,5,11,13,11,1,0,0,0,0,0,0,0,0,0,0,0,0,0,0,0,0],"split_type":[0,0,0,0,0,0,0,0,0,0,0,0,0,0,0,0,0,0,0,0,0,0,0,0,0,0,0,0,0,0,0],"sum_hessian":[6.38E2,1.07E2,5.31E2,7.1E1,3.6E1,4.17E2,1.14E2,4.3E1,2.8E1,1.2E1,2.4E1,2.9E1,3.88E2,1.03E2,1.1E1,3.3E1,1E1,7E0,2.1E1,9E0,3E0,2.3E1,1E0,1.6E1,1.3E1,9.4E1,2.94E2,1.2E1,9.1E1,9E0,2E0],"tree_param":{"num_deleted":"0","num_feature":"23","num_nodes":"31","size_leaf_vector":"1"}},{"base_weights":[-8.641109E-2,1.3472315E0,-9.81356E-1,8.8492185E-1,9.420177E0,-3.6251454E0,-7.804235E-1,2.7695177E0,1.4133604E-1,2.576275E-1,5.580438E-1,-1.1013923E-1,-4.337266E0,1.8454856E0,-9.843038E-1,2.3401856E-2,2.576275E-1,7.8820124E-2,-3.578597E-2,-2.3849618E-1,-1.1013923E-1,1.882636E-1,2.1529546E-2,-7.9357974E-2,-2.2630824E-2],"categories":[],"categories_nodes":[],"categories_segments":[],"categories_sizes":[],"default_left":[0,0,0,0,0,0,0,0,0,0,0,0,0,0,0,0,0,0,0,0,0,0,0,0,0],"id":17,"left_children":[1,3,5,7,9,11,13,15,17,-1,-1,-1,19,21,23,-1,-1,-1,-1,-1,-1,-1,-1,-1,-1],"loss_changes":[8.2661957E2,9.090597E2,2.066178E2,3.2967737E2,3.8519043E1,3.7328003E1,2.0495793E2,5.769502E2,2.1773706E2,0E0,0E0,0E0,2.9619446E0,7.173781E1,1.0921747E2,0E0,0E0,0E0,0E0,0E0,0E0,0E0,0E0,0E0,0E0],"parents":[2147483647,0,0,1,1,2,2,3,3,4,4,5,5,6,6,7,7,8,8,12,12,13,13,14,14],"right_children":[2,4,6,8,10,12,14,16,18,-1,-1,-1,20,22,24,-1,-1,-1,-1,-1,-1,-1,-1,-1,-1],"split_conditions":[-4.832207E-1,-8.7558967E-1,-1.0010431E0,-1.2156354E0,2.0928887E-1,1.6600253E-1,-5.137002E-1,4.9765033E-1,1.317327E-1,2.576275E-1,5.580438E-1,-1.1013923E-1,-4.263991E-1,-1.1342543E0,8.1087846E-1,2.3401856E-2,2.576275E-1,7.8820124E-2,-3.578597E-2,-2.3849618E-1,-1.1013923E-1,1.882636E-1,2.1529546E-2,-7.9357974E-2,-2.2630824E-2],"split_indices":[1,0,16,1,8,5,6,5,9,0,0,0,18,13,16,0,0,0,0,0,0,0,0,0,0],"split_type":[0,0,0,0,0,0,0,0,0,0,0,0,0,0,0,0,0,0,0,0,0,0,0,0,0],"sum_hessian":[6.37E2,2.44E2,3.93E2,2.33E2,1.1E1,2.5E1,3.68E2,6.4E1,1.69E2,4E0,7E0,5E0,2E1,2.5E1,3.43E2,4.4E1,2E1,6.3E1,1.06E2,1.5E1,5E0,9E0,1.6E1,1.58E2,1.85E2],"tree_param":{"num_deleted":"0","num_feature":"23","num_nodes":"25","size_leaf_vector":"1"}},{"base_weights":[-3.682555E-2,-8.656477E-1,1.6590929E0,-1.368928E0,-2.5112742E-1,4.510144E0,3.967226E-1,-8.100277E-1,-1.7746239E0,3.967226E-1,-7.96944E-1,3.967226E-1,5.473404E0,1.8070863E0,3.967226E-1,-1.5214157E-1,-4.0501386E-2,-2.375748E-1,-6.3716754E-2,-1.0005536E-2,1.9836131E-2,-4.0501386E-2,-1.0005536E-2,2.4748264E-1,1.9836131E-2,3.7306392E-1,1.5934296E-1,5.5095226E-2,2.8790948E-1,1.9836131E-2,5.5095226E-2],"categories":[],"categories_nodes":[],"categories_segments":[],"categories_sizes":[],"default_left":[0,0,0,0,0,0,0,0,0,0,0,0,0,0,0,0,0,0,0,0,0,0,0,0,0,0,0,0,0,0,0],"id":18,"left_children":[1,3,5,7,9,11,13,15,17,19,21,23,25,27,29,-1,-1,-1,-1,-1,-1,-1,-1,-1,-1,-1,-1,-1,-1,-1,-1],"loss_changes":[9.221099E2,1.3497339E2,1.2379435E3,7.340173E1,1.04494095E2,4.382998E2,2.8364594E1,2.3094963E1,2.2865384E2,2.3038761E1,2.7955185E1,9.170777E1,3.066836E2,1.507761E2,1.2593918E1,0E0,0E0,0E0,0E0,0E0,0E0,0E0,0E0,0E0,0E0,0E0,0E0,0E0,0E0,0E0,0E0],"parents":[2147483647,0,0,1,1,2,2,3,3,4,4,5,5,6,6,7,7,8,8,9,9,10,10,11,11,12,12,13,13,14,14],"right_children":[2,4,6,8,10,12,14,16,18,20,22,24,26,28,30,-1,-1,-1,-1,-1,-1,-1,-1,-1,-1,-1,-1,-1,-1,-1,-1],"split_conditions":[7.095235E-1,-3.8477278E-1,-4.832207E-1,-6.295473E-1,-8.372247E-1,-1.0302979E0,-6.295421E-1,-2.453114E0,-1.0010431E0,-1.1809617E0,2.6036695E-1,-1.2428E0,-4.606528E-1,-8.393416E-1,1.8255793E0,-1.5214157E-1,-4.0501386E-2,-2.375748E-1,-6.3716754E-2,-1.0005536E-2,1.9836131E-2,-4.0501386E-2,-1.0005536E-2,2.4748264E-1,1.9836131E-2,3.7306392E-1,1.5934296E-1,5.5095226E-2,2.8790948E-1,1.9836131E-2,5.5095226E-2],"split_indices":[22,22,1,1,4,11,4,8,16,18,9,7,8,0,13,0,0,0,0,0,0,0,0,0,0,0,0,0,0,0,0],"split_type":[0,0,0,0,0,0,0,0,0,0,0,0,0,0,0,0,0,0,0,0,0,0,0,0,0,0,0,0,0,0,0],"sum_hessian":[6.49E2,4.37E2,2.12E2,2.38E2,1.99E2,9.1E1,1.21E2,8E1,1.58E2,6.9E1,1.3E2,1.5E1,7.6E1,1.1E1,1.1E2,2E0,7.8E1,2E1,1.38E2,2E1,4.9E1,9.7E1,3.3E1,2E0,1.3E1,3.8E1,3.8E1,6E0,5E0,1.01E2,9E0],"tree_param":{"num_deleted":"0","num_feature":"23","num_nodes":"31","size_leaf_vector":"1"}},{"base_weights":[-1.6129242E-1,-1.1905025E0,9.155329E-1,-3.3395204E-1,-1.542297E0,2.6173873E0,-1.3748482E-1,-1.7442784E-1,-1.5036333E-1,-3.5969532E0,-1.1420292E0,1.8309256E0,6.859916E0,-1.3748482E-1,6.3667697E-1,-1.1708633E-1,-6.874241E-3,-1.1847456E-1,-2.4995029E-1,-7.914171E-2,-1.9850494E-2,2.178129E-1,6.1997563E-2,7.878928E-2,4.9801585E-1,1.24798035E-2,-6.874241E-3,4.240333E-2,1.24798035E-2],"categories":[],"categories_nodes":[],"categories_segments":[],"categories_sizes":[],"default_left":[0,0,0,0,0,0,0,0,0,0,0,0,0,0,0,0,0,0,0,0,0,0,0,0,0,0,0,0,0],"id":19,"left_children":[1,3,5,7,9,11,13,-1,15,17,19,21,23,25,27,-1,-1,-1,-1,-1,-1,-1,-1,-1,-1,-1,-1,-1,-1],"loss_changes":[7.078852E2,9.639731E1,8.2078955E2,5.867858E1,1.8177118E2,4.8883362E2,1.3497049E1,0E0,3.833994E1,5.487918E1,6.2478546E1,4.8028827E2,3.432328E2,5.0957603E0,3.0322208E0,0E0,0E0,0E0,0E0,0E0,0E0,0E0,0E0,0E0,0E0,0E0,0E0,0E0,0E0],"parents":[2147483647,0,0,1,1,2,2,3,3,4,4,5,5,6,6,8,8,9,9,10,10,11,11,12,12,13,13,14,14],"right_children":[2,4,6,8,10,12,14,-1,16,18,20,22,24,26,28,-1,-1,-1,-1,-1,-1,-1,-1,-1,-1,-1,-1,-1,-1],"split_conditions":[1.6237538E-1,-3.6432064E-1,3.458066E-1,-1.8875861E0,-1.0371087E0,2.3357902E-1,1.6214371E0,-1.7442784E-1,-1.4436325E0,4.9450415E-1,-5.671555E-1,-1.08349E0,8.919062E-1,1.348456E-1,7.634413E-1,-1.1708633E-1,-6.874241E-3,-1.1847456E-1,-2.4995029E-1,-7.914171E-2,-1.9850494E-2,2.178129E-1,6.1997563E-2,7.878928E-2,4.9801585E-1,1.24798035E-2,-6.874241E-3,4.240333E-2,1.24798035E-2],"split_indices":[22,10,7,13,16,8,22,0,20,10,22,1,22,8,11,0,0,0,0,0,0,0,0,0,0,0,0,0,0],"split_type":[0,0,0,0,0,0,0,0,0,0,0,0,0,0,0,0,0,0,0,0,0,0,0,0,0,0,0,0,0],"sum_hessian":[6.31E2,3.23E2,3.08E2,9.6E1,2.27E2,1.51E2,1.57E2,3E0,9.3E1,3.4E1,1.93E2,1.3E2,2.1E1,1.39E2,1.8E1,5E0,8.8E1,1.9E1,1.5E1,1.19E2,7.4E1,5.2E1,7.8E1,9E0,1.2E1,5E0,1.34E2,1.4E1,4E0],"tree_param":{"num_deleted":"0","num_feature":"23","num_nodes":"29","size_leaf_vector":"1"}},{"base_weights":[1.04893915E-1,1.320701E0,-8.7058383E-1,2.2505859E-1,4.5734873E0,-1.3822017E0,-4.6140742E-1,1.5404456E0,2.2505859E-1,2.399273E0,6.5126743E0,-1.554348E0,-1.3528112E-1,-1.3978231E0,-0E0,1.1252929E-2,1.19963646E-1,1.1252929E-2,6.722981E-2,2.8951064E-1,1.19963646E-1,1.2573856E-1,3.880601E-1,-1.5235534E-1,-6.6452846E-2,9.422973E-3,-5.600811E-2,-3.4945577E-2,-7.888191E-2,-3.4945577E-2,1.1252929E-2],"categories":[],"categories_nodes":[],"categories_segments":[],"categories_sizes":[],"default_left":[0,0,0,0,0,0,0,0,0,0,0,0,0,0,0,0,0,0,0,0,0,0,0,0,0,0,0,0,0,0,0],"id":20,"left_children":[1,3,5,7,9,11,13,15,17,19,21,23,25,27,29,-1,-1,-1,-1,-1,-1,-1,-1,-1,-1,-1,-1,-1,-1,-1,-1],"loss_changes":[6.9361224E2,1.1703813E3,6.623497E1,5.097628E1,5.3732666E2,2.8770782E1,8.014728E1,7.035847E1,1.7178146E1,1.1025359E2,2.2775586E2,3.4533478E1,1.0077514E1,1.0226387E1,4.4441147E1,0E0,0E0,0E0,0E0,0E0,0E0,0E0,0E0,0E0,0E0,0E0,0E0,0E0,0E0,0E0,0E0],"parents":[2147483647,0,0,1,1,2,2,3,3,4,4,5,5,6,6,7,7,8,8,9,9,10,10,11,11,12,12,13,13,14,14],"right_children":[2,4,6,8,10,12,14,16,18,20,22,24,26,28,30,-1,-1,-1,-1,-1,-1,-1,-1,-1,-1,-1,-1,-1,-1,-1,-1],"split_conditions":[-3.0471396E-1,8.919062E-1,4.7003478E-1,-1.1555223E0,-6.683191E-1,-5.783449E-1,-5.671555E-1,-1.7080656E0,2.16676E-1,-1.2137383E0,-9.0557426E-1,-6.1318535E-1,9.601497E-2,6.338163E-1,5.3844243E-1,1.1252929E-2,1.19963646E-1,1.1252929E-2,6.722981E-2,2.8951064E-1,1.19963646E-1,1.2573856E-1,3.880601E-1,-1.5235534E-1,-6.6452846E-2,9.422973E-3,-5.600811E-2,-3.4945577E-2,-7.888191E-2,-3.4945577E-2,1.1252929E-2],"split_indices":[17,22,13,13,11,5,22,11,8,7,19,12,13,13,10,0,0,0,0,0,0,0,0,0,0,0,0,0,0,0,0],"split_type":[0,0,0,0,0,0,0,0,0,0,0,0,0,0,0,0,0,0,0,0,0,0,0,0,0,0,0,0,0,0,0],"sum_hessian":[5.77E2,2.57E2,3.2E2,1.81E2,7.6E1,1.39E2,1.81E2,2.6E1,1.55E2,2.4E1,5.2E1,1.21E2,1.8E1,5.8E1,1.23E2,7E0,1.9E1,1.45E2,1E1,8E0,1.6E1,1.4E1,3.8E1,1.2E1,1.09E2,1.4E1,4E0,8E0,5E1,3E1,9.3E1],"tree_param":{"num_deleted":"0","num_feature":"23","num_nodes":"31","size_leaf_vector":"1"}},{"base_weights":[-1.383314E-1,1.0249512E0,-8.863094E-1,6.928238E-1,7.274955E0,-1.0072132E0,1.7692401E0,1.6352249E0,-2.9352266E-1,1.9919448E-1,4.215636E-1,-3.70221E-1,-1.3492746E0,1.9050673E-2,1.3240807E-1,2.8875866E-3,1.6370009E-1,4.6108473E-2,-6.287988E-2,-9.278845E-2,1.0755235E-2,-8.795742E-2,-3.445302E-2],"categories":[],"categories_nodes":[],"categories_segments":[],"categories_sizes":[],"default_left":[0,0,0,0,0,0,0,0,0,0,0,0,0,0,0,0,0,0,0,0,0,0,0],"id":21,"left_children":[1,3,5,7,9,11,13,15,17,-1,-1,19,21,-1,-1,-1,-1,-1,-1,-1,-1,-1,-1],"loss_changes":[5.490427E2,5.044077E2,1.2922952E2,2.2321393E2,1.8609375E1,7.8671844E1,2.5245129E1,3.1248358E2,1.4238147E2,0E0,0E0,1.2061821E2,6.1458588E1,0E0,0E0,0E0,0E0,0E0,0E0,0E0,0E0,0E0,0E0],"parents":[2147483647,0,0,1,1,2,2,3,3,4,4,5,5,6,6,7,7,8,8,11,11,12,12],"right_children":[2,4,6,8,10,12,14,16,18,-1,-1,20,22,-1,-1,-1,-1,-1,-1,-1,-1,-1,-1],"split_conditions":[-4.832207E-1,-8.7558967E-1,2.4822812E0,-1.08349E0,-8.276489E-1,3.4148392E-1,-8.993696E-1,3.5760525E-1,-8.391166E-1,1.9919448E-1,4.215636E-1,-4.263991E-1,1.1054598E0,1.9050673E-2,1.3240807E-1,2.8875866E-3,1.6370009E-1,4.6108473E-2,-6.287988E-2,-9.278845E-2,1.0755235E-2,-8.795742E-2,-3.445302E-2],"split_indices":[1,0,3,1,18,1,5,5,13,0,0,18,13,0,0,0,0,0,0,0,0,0,0],"split_type":[0,0,0,0,0,0,0,0,0,0,0,0,0,0,0,0,0,0,0,0,0,0,0],"sum_hessian":[6.23E2,2.43E2,3.8E2,2.33E2,1E1,3.65E2,1.5E1,1.19E2,1.14E2,3E0,7E0,1.3E2,2.35E2,6E0,9E0,6.2E1,5.7E1,5E1,6.4E1,3.6E1,9.4E1,1.42E2,9.3E1],"tree_param":{"num_deleted":"0","num_feature":"23","num_nodes":"23","size_leaf_vector":"1"}},{"base_weights":[-1.1845008E-1,2.7372556E0,-4.4501284E-1,5.630711E-1,6.0439377E0,-1.0401003E0,2.1183762E-1,1.3847108E0,-1.147907E0,3.3035045E0,9.090199E0,-2.0145497E0,-7.5503844E-1,2.1230853E0,-4.1413134E-1,5.9200944E-3,1.02316834E-1,5.9200944E-3,-9.5208354E-2,1.6517523E-1,3.098426E-1,5.273048E-1,3.098426E-1,-6.9239706E-2,-2.3530737E-1,-6.805598E-2,-2.1301419E-2,4.2723846E-2,2.2015674E-1,4.2723846E-2,-2.0706568E-2],"categories":[],"categories_nodes":[],"categories_segments":[],"categories_sizes":[],"default_left":[0,0,0,0,0,0,0,0,0,0,0,0,0,0,0,0,0,0,0,0,0,0,0,0,0,0,0,0,0,0,0],"id":22,"left_children":[1,3,5,7,9,11,13,15,17,19,21,23,25,27,29,-1,-1,-1,-1,-1,-1,-1,-1,-1,-1,-1,-1,-1,-1,-1,-1],"loss_changes":[5.8819354E2,4.5444385E2,2.225593E2,6.499304E1,2.988045E2,7.986966E1,4.4565192E2,3.656511E1,1.9942799E1,2.6915749E1,8.613037E0,1.5227158E2,4.55791E1,4.959523E2,6.3011536E1,0E0,0E0,0E0,0E0,0E0,0E0,0E0,0E0,0E0,0E0,0E0,0E0,0E0,0E0,0E0,0E0],"parents":[2147483647,0,0,1,1,2,2,3,3,4,4,5,5,6,6,7,7,8,8,9,9,10,10,11,11,12,12,13,13,14,14],"right_children":[2,4,6,8,10,12,14,16,18,20,22,24,26,28,30,-1,-1,-1,-1,-1,-1,-1,-1,-1,-1,-1,-1,-1,-1,-1,-1],"split_conditions":[-1.2088401E0,8.919062E-1,1.6237538E-1,-9.2311144E-1,-1.2647169E0,-1.0216826E0,-5.5021787E-1,-1.049579E0,-2.2538161E-1,-6.4905345E-1,-7.895082E-1,3.4274802E-1,-1.0065331E0,-7.827164E-1,-9.797346E-1,5.9200944E-3,1.02316834E-1,5.9200944E-3,-9.5208354E-2,1.6517523E-1,3.098426E-1,5.273048E-1,3.098426E-1,-6.9239706E-2,-2.3530737E-1,-6.805598E-2,-2.1301419E-2,4.2723846E-2,2.2015674E-1,4.2723846E-2,-2.0706568E-2],"split_indices":[1,22,22,4,2,16,6,18,5,11,10,10,5,11,1,0,0,0,0,0,0,0,0,0,0,0,0,0,0,0,0],"split_type":[0,0,0,0,0,0,0,0,0,0,0,0,0,0,0,0,0,0,0,0,0,0,0,0,0,0,0,0,0,0,0],"sum_hessian":[6.22E2,6.2E1,5.6E2,3.9E1,2.3E1,2.94E2,2.66E2,2.7E1,1.2E1,1E1,1.3E1,6.3E1,2.31E2,8.3E1,1.83E2,7E0,2E1,4E0,8E0,7E0,3E0,9E0,4E0,4.9E1,1.4E1,7.8E1,1.53E2,3.5E1,4.8E1,9E0,1.74E2],"tree_param":{"num_deleted":"0","num_feature":"23","num_nodes":"31","size_leaf_vector":"1"}},{"base_weights":[-7.83641E-2,-9.0044016E-1,8.0372685E-1,-2.1300201E0,-6.62224E-1,2.6852329E0,-4.8356652E-2,-2.4496906E0,-6.980611E-2,-4.8356652E-2,-1.1104851E0,1.318438E0,4.5833893E0,1.318438E0,-4.8356652E-2,-9.6145324E-2,-1.4987977E-1,-2.4178326E-3,-6.980611E-2,-6.980611E-2,-2.04778E-2,1.3920818E-1,6.59219E-2,6.59219E-2,3.5760853E-1,6.59219E-2,-0E0,-2.4178326E-3,5.7999413E-2],"categories":[],"categories_nodes":[],"categories_segments":[],"categories_sizes":[],"default_left":[0,0,0,0,0,0,0,0,0,0,0,0,0,0,0,0,0,0,0,0,0,0,0,0,0,0,0,0,0],"id":23,"left_children":[1,3,5,7,9,11,13,15,-1,17,19,21,23,25,27,-1,-1,-1,-1,-1,-1,-1,-1,-1,-1,-1,-1,-1,-1],"loss_changes":[4.5656165E2,9.307175E1,6.893923E2,1.3672363E1,9.581131E1,4.5651025E2,6.996533E1,9.164642E0,0E0,2.286386E1,6.501845E1,3.382852E1,6.126594E2,2.8149567E0,2.1393282E1,0E0,0E0,0E0,0E0,0E0,0E0,0E0,0E0,0E0,0E0,0E0,0E0,0E0,0E0],"parents":[2147483647,0,0,1,1,2,2,3,3,4,4,5,5,6,6,7,7,9,9,10,10,11,11,12,12,13,13,14,14],"right_children":[2,4,6,8,10,12,14,16,-1,18,20,22,24,26,28,-1,-1,-1,-1,-1,-1,-1,-1,-1,-1,-1,-1,-1,-1],"split_conditions":[1.6237538E-1,-8.934227E-1,-4.4969168E-1,4.3298486E-1,-6.295473E-1,-6.4905345E-1,-1.1816515E0,-8.686635E-1,-6.980611E-2,5.0512564E-1,6.9786763E-1,-9.8844016E-1,8.919062E-1,-2.2812383E-1,1.8255793E0,-9.6145324E-2,-1.4987977E-1,-2.4178326E-3,-6.980611E-2,-6.980611E-2,-2.04778E-2,1.3920818E-1,6.59219E-2,6.59219E-2,3.5760853E-1,6.59219E-2,-0E0,-2.4178326E-3,5.7999413E-2],"split_indices":[22,15,6,14,1,11,1,1,0,13,3,20,22,6,13,0,0,0,0,0,0,0,0,0,0,0,0,0,0],"split_type":[0,0,0,0,0,0,0,0,0,0,0,0,0,0,0,0,0,0,0,0,0,0,0,0,0,0,0,0,0],"sum_hessian":[6.21E2,3.22E2,2.99E2,4.9E1,2.73E2,1.19E2,1.8E2,3.8E1,1.1E1,9.9E1,1.74E2,5.7E1,6.2E1,4E0,1.76E2,1.7E1,2.1E1,9.4E1,5E0,8.9E1,8.5E1,1.4E1,4.3E1,2.6E1,3.6E1,3E0,1E0,1.65E2,1.1E1],"tree_param":{"num_deleted":"0","num_feature":"23","num_nodes":"29","size_leaf_vector":"1"}},{"base_weights":[-3.0713646E-2,1.2235675E0,-8.4550345E-1,9.728395E-2,3.601988E0,-3.1007519E0,-7.601455E-1,-5.176999E-1,8.8246405E-1,1.849636E0,6.315068E0,-1.983131E-1,-9.6522436E-2,-4.467283E-2,-1.0966921E0,-4.629724E-2,6.9286088E-3,9.24818E-2,9.119104E-3,9.24818E-2,4.2620927E-1,3.4282288E-1,9.24818E-2,-4.3120347E-2,2.352841E-2,-8.154883E-2,-3.0834982E-2],"categories":[],"categories_nodes":[],"categories_segments":[],"categories_sizes":[],"default_left":[0,0,0,0,0,0,0,0,0,0,0,0,0,0,0,0,0,0,0,0,0,0,0,0,0,0,0],"id":24,"left_children":[1,3,5,7,9,11,13,15,17,19,21,-1,-1,23,25,-1,-1,-1,-1,-1,-1,-1,-1,-1,-1,-1,-1],"loss_changes":[6.5370013E2,6.702452E2,7.176224E1,8.69384E1,4.7076782E2,1.7918167E1,8.9819244E1,2.8125837E1,6.8749084E1,2.2925484E2,1.0365027E2,0E0,0E0,5.5603695E1,6.318164E1,0E0,0E0,0E0,0E0,0E0,0E0,0E0,0E0,0E0,0E0,0E0,0E0],"parents":[2147483647,0,0,1,1,2,2,3,3,4,4,5,5,6,6,7,7,8,8,9,9,10,10,13,13,14,14],"right_children":[2,4,6,8,10,12,14,16,18,20,22,-1,-1,24,26,-1,-1,-1,-1,-1,-1,-1,-1,-1,-1,-1,-1],"split_conditions":[-4.832207E-1,8.919062E-1,-1.0336001E0,-1.03672355E-1,-8.9786655E-1,1.2068608E0,3.4148392E-1,2.6333874E-1,-1.1983496E0,1.6729813E-2,6.291238E-1,-1.983131E-1,-9.6522436E-2,1.6237538E-1,7.509376E-1,-4.629724E-2,6.9286088E-3,9.24818E-2,9.119104E-3,9.24818E-2,4.2620927E-1,3.4282288E-1,9.24818E-2,-4.3120347E-2,2.352841E-2,-8.154883E-2,-3.0834982E-2],"split_indices":[1,22,18,15,19,5,1,20,8,13,9,0,0,22,13,0,0,0,0,0,0,0,0,0,0,0,0],"split_type":[0,0,0,0,0,0,0,0,0,0,0,0,0,0,0,0,0,0,0,0,0,0,0,0,0,0,0],"sum_hessian":[6.32E2,2.48E2,3.84E2,1.7E2,7.8E1,1.1E1,3.73E2,9.5E1,7.5E1,4.4E1,3.4E1,8E0,3E0,1.21E2,2.52E2,5.9E1,3.6E1,2.7E1,4.8E1,4.1E1,3E0,3.1E1,3E0,4.7E1,7.4E1,1.16E2,1.36E2],"tree_param":{"num_deleted":"0","num_feature":"23","num_nodes":"27","size_leaf_vector":"1"}},{"base_weights":[-1.4613567E-1,6.5997094E-1,-8.064455E-1,-2.525907E-1,2.7541363E0,-9.118568E-1,1.438909E0,-8.139847E-1,9.7818625E-1,1.2507728E0,4.420084E0,-2.7843997E0,-7.9734427E-1,1.3176307E-2,2.5283847E0,-5.5464115E-2,4.105039E-3,6.2538646E-2,4.4915625E-3,6.2538646E-2,2.3282492E-1,3.0770066E-1,6.2538646E-2,-1.4846997E-1,-2.011004E-2,-6.7633025E-2,-2.3088397E-2,1.5783617E-1,2.8151227E-2],"categories":[],"categories_nodes":[],"categories_segments":[],"categories_sizes":[],"default_left":[0,0,0,0,0,0,0,0,0,0,0,0,0,0,0,0,0,0,0,0,0,0,0,0,0,0,0,0,0],"id":25,"left_children":[1,3,5,7,9,11,13,15,17,19,21,23,25,-1,27,-1,-1,-1,-1,-1,-1,-1,-1,-1,-1,-1,-1,-1,-1],"loss_changes":[3.402525E2,5.5323706E2,8.778909E1,1.4269757E2,4.3637964E2,6.915164E1,2.6101913E1,5.645285E1,4.7020298E1,3.8479507E1,4.734546E2,3.3469086E0,5.8416443E1,0E0,6.2225456E0,0E0,0E0,0E0,0E0,0E0,0E0,0E0,0E0,0E0,0E0,0E0,0E0,0E0,0E0],"parents":[2147483647,0,0,1,1,2,2,3,3,4,4,5,5,6,6,7,7,8,8,9,9,10,10,11,11,12,12,14,14],"right_children":[2,4,6,8,10,12,14,16,18,20,22,24,26,-1,28,-1,-1,-1,-1,-1,-1,-1,-1,-1,-1,-1,-1,-1,-1],"split_conditions":[-2.3429619E-1,8.919062E-1,1.5956889E0,1.1171411E-1,-6.763365E-1,-1.173773E0,-9.829204E-1,-9.309473E-1,-9.045644E-1,1.571932E-1,2.4267063E-1,9.9733096E-1,2.3074922E-1,1.3176307E-2,-4.7722262E-1,-5.5464115E-2,4.105039E-3,6.2538646E-2,4.4915625E-3,6.2538646E-2,2.3282492E-1,3.0770066E-1,6.2538646E-2,-1.4846997E-1,-2.011004E-2,-6.7633025E-2,-2.3088397E-2,1.5783617E-1,2.8151227E-2],"split_indices":[1,22,0,15,11,11,5,16,13,13,11,12,13,0,9,0,0,0,0,0,0,0,0,0,0,0,0,0,0],"split_type":[0,0,0,0,0,0,0,0,0,0,0,0,0,0,0,0,0,0,0,0,0,0,0,0,0,0,0,0,0],"sum_hessian":[6.3E2,2.83E2,3.47E2,1.98E2,8.5E1,3.33E2,1.4E1,1.37E2,6.1E1,2.4E1,6.1E1,1.6E1,3.17E2,7E0,7E0,1.16E2,2.1E1,2.1E1,4E1,2.3E1,1E0,4.4E1,1.7E1,1.4E1,2E0,1.16E2,2.01E2,4E0,3E0],"tree_param":{"num_deleted":"0","num_feature":"23","num_nodes":"29","size_leaf_vector":"1"}},{"base_weights":[5.249026E-2,1.1619109E0,-6.1709523E-1,-8.4622905E-2,4.360814E0,-5.275324E-1,-1.3685371E-1,-5.4138863E-1,9.511255E-1,2.4735155E0,7.9508786E0,-9.8005366E-1,-4.466223E-2,-1.2900567E-1,-1.6224852E-2,7.7387795E-2,1.0243422E-2,1.0690478E-1,4.012301E-1,1.0690478E-1,4.488848E-1,-8.1615165E-2,-3.132742E-2,1.079749E-1,-2.0091651E-2],"categories":[],"categories_nodes":[],"categories_segments":[],"categories_sizes":[],"default_left":[0,0,0,0,0,0,0,0,0,0,0,0,0,0,0,0,0,0,0,0,0,0,0,0,0],"id":26,"left_children":[1,3,5,7,9,11,-1,13,15,17,19,21,23,-1,-1,-1,-1,-1,-1,-1,-1,-1,-1,-1,-1],"loss_changes":[4.7268573E2,9.606162E2,7.376207E1,8.528123E1,4.1632947E2,8.2915565E1,0E0,5.4093597E1,4.7334187E1,3.0853018E2,1.851676E2,7.8921524E1,1.522291E2,0E0,0E0,0E0,0E0,0E0,0E0,0E0,0E0,0E0,0E0,0E0,0E0],"parents":[2147483647,0,0,1,1,2,2,3,3,4,4,5,5,7,7,8,8,9,9,10,10,11,11,12,12],"right_children":[2,4,6,8,10,12,-1,14,16,18,20,22,24,-1,-1,-1,-1,-1,-1,-1,-1,-1,-1,-1,-1],"split_conditions":[-4.832207E-1,8.919062E-1,2.1155717E0,1.1171411E-1,-3.6772308E-1,1.6237538E-1,-1.3685371E-1,-1.449062E0,-8.4366983E-1,2.3357902E-1,-1.2979019E0,8.584034E-3,-5.9206957E-1,-1.2900567E-1,-1.6224852E-2,7.7387795E-2,1.0243422E-2,1.0690478E-1,4.012301E-1,1.0690478E-1,4.488848E-1,-8.1615165E-2,-3.132742E-2,1.079749E-1,-2.0091651E-2],"split_indices":[1,22,6,15,13,22,0,19,1,8,1,18,6,0,0,0,0,0,0,0,0,0,0,0,0],"split_type":[0,0,0,0,0,0,0,0,0,0,0,0,0,0,0,0,0,0,0,0,0,0,0,0,0],"sum_hessian":[6.27E2,2.36E2,3.91E2,1.71E2,6.5E1,3.78E2,1.3E1,1.2E2,5.1E1,4.5E1,2E1,1.93E2,1.85E2,9E0,1.11E2,4E1,1.1E1,3.8E1,7E0,2E0,1.8E1,2.9E1,1.64E2,2.4E1,1.61E2],"tree_param":{"num_deleted":"0","num_feature":"23","num_nodes":"25","size_leaf_vector":"1"}},{"base_weights":[-6.449063E-2,1.8061702E0,-4.859992E-1,2.9406875E-1,4.175692E0,-7.9494405E-1,4.168549E-1,-5.2652556E-1,2.5302665E0,7.456195E0,1.5208426E0,-1.048252E0,1.8407105E-1,-8.2496595E-1,1.5880729E0,-7.078912E-2,4.7904782E-2,5.0093528E-2,2.4118999E-1,-7.7849864E-3,4.2144266E-1,3.6560968E-1,2.1627953E-2,-8.234456E-2,-3.8961038E-2,-3.5279386E-3,1.2932752E-1,1.9077674E-2,-8.21888E-2,1.9077674E-2,2.0760845E-1],"categories":[],"categories_nodes":[],"categories_segments":[],"categories_sizes":[],"default_left":[0,0,0,0,0,0,0,0,0,0,0,0,0,0,0,0,0,0,0,0,0,0,0,0,0,0,0,0,0,0,0],"id":27,"left_children":[1,3,5,7,9,11,13,15,17,19,21,23,25,27,29,-1,-1,-1,-1,-1,-1,-1,-1,-1,-1,-1,-1,-1,-1,-1,-1],"loss_changes":[4.9376056E2,4.0685864E2,1.4418997E2,1.4231448E2,3.6115314E2,9.636191E1,1.9645325E2,7.815662E1,8.7323975E1,1.5382593E2,1.6854819E2,4.656195E1,5.615477E1,1.25586205E2,2.3285365E2,0E0,0E0,0E0,0E0,0E0,0E0,0E0,0E0,0E0,0E0,0E0,0E0,0E0,0E0,0E0,0E0],"parents":[2147483647,0,0,1,1,2,2,3,3,4,4,5,5,6,6,7,7,8,8,9,9,10,10,11,11,12,12,13,13,14,14],"right_children":[2,4,6,8,10,12,14,16,18,20,22,24,26,28,30,-1,-1,-1,-1,-1,-1,-1,-1,-1,-1,-1,-1,-1,-1,-1,-1],"split_conditions":[-1.08349E0,5.079727E-1,7.7467483E-1,-1.0689607E0,-1.2156354E0,1.1536088E0,-4.9825735E-2,-4.033866E-1,-8.352482E-1,-1.2252278E0,5.6348807E-1,-2.519974E-1,2.6143436E0,-4.9178805E-2,-8.6995715E-1,-7.078912E-2,4.7904782E-2,5.0093528E-2,2.4118999E-1,-7.7849864E-3,4.2144266E-1,3.6560968E-1,2.1627953E-2,-8.234456E-2,-3.8961038E-2,-3.5279386E-3,1.2932752E-1,1.9077674E-2,-8.21888E-2,1.9077674E-2,2.0760845E-1],"split_indices":[1,5,5,16,1,16,15,11,11,11,5,14,3,9,16,0,0,0,0,0,0,0,0,0,0,0,0,0,0,0,0],"split_type":[0,0,0,0,0,0,0,0,0,0,0,0,0,0,0,0,0,0,0,0,0,0,0,0,0,0,0,0,0,0,0],"sum_hessian":[6.18E2,1.12E2,5.06E2,7E1,4.2E1,3.78E2,1.28E2,5.2E1,1.8E1,1.7E1,2.5E1,3.01E2,7.7E1,6.2E1,6.6E1,3.3E1,1.9E1,1.1E1,7E0,2E0,1.5E1,2E0,2.3E1,8.9E1,2.12E2,7.1E1,6E0,1.1E1,5.1E1,4.5E1,2.1E1],"tree_param":{"num_deleted":"0","num_feature":"23","num_nodes":"31","size_leaf_vector":"1"}},{"base_weights":[-1.3558319E-1,8.14789E-1,-5.531584E-1,1.11375734E-1,2.8570085E0,-2.1692228E0,-3.0905998E-1,-6.334728E-1,1.101134E0,1.4841921E0,4.706952E0,-6.1957072E-2,-2.878601E0,1.7430595E0,-5.200207E-1,-1.6816638E-2,-1.2266709E-1,7.420961E-2,1.1691528E-2,7.420961E-2,1.2709172E-1,9.303589E-2,3.6290488E-1,-6.1957072E-2,-1.8468824E-1,3.057597E-2,3.636293E-1,-5.9860196E-2,-8.639245E-3],"categories":[],"categories_nodes":[],"categories_segments":[],"categories_sizes":[],"default_left":[0,0,0,0,0,0,0,0,0,0,0,0,0,0,0,0,0,0,0,0,0,0,0,0,0,0,0,0,0],"id":28,"left_children":[1,3,5,7,9,11,13,15,17,19,21,-1,23,25,27,-1,-1,-1,-1,-1,-1,-1,-1,-1,-1,-1,-1,-1,-1],"loss_changes":[2.5391486E2,2.7795163E2,1.7399626E2,1.1274332E2,2.3930539E2,6.999216E1,1.716037E2,4.5295944E1,6.9241615E1,7.777092E0,2.0505145E2,0E0,5.233719E1,3.635457E2,8.268629E1,0E0,0E0,0E0,0E0,0E0,0E0,0E0,0E0,0E0,0E0,0E0,0E0,0E0,0E0],"parents":[2147483647,0,0,1,1,2,2,3,3,4,4,5,5,6,6,7,7,8,8,9,9,10,10,12,12,13,13,14,14],"right_children":[2,4,6,8,10,12,14,16,18,20,22,-1,24,26,28,-1,-1,-1,-1,-1,-1,-1,-1,-1,-1,-1,-1,-1,-1],"split_conditions":[-3.6432064E-1,8.919062E-1,-7.1331203E-1,-1.03672355E-1,-6.4905345E-1,-1.3852923E0,-1.2314146E0,1.4013196E0,-4.2071912E-1,-8.46685E-1,-1.8363276E-1,-6.1957072E-2,-4.1944975E-1,8.919062E-1,2.0306237E-1,-1.6816638E-2,-1.2266709E-1,7.420961E-2,1.1691528E-2,7.420961E-2,1.2709172E-1,9.303589E-2,3.6290488E-1,-6.1957072E-2,-1.8468824E-1,3.057597E-2,3.636293E-1,-5.9860196E-2,-8.639245E-3],"split_indices":[10,22,14,15,11,13,17,20,13,12,9,0,20,22,11,0,0,0,0,0,0,0,0,0,0,0,0,0,0],"split_type":[0,0,0,0,0,0,0,0,0,0,0,0,0,0,0,0,0,0,0,0,0,0,0,0,0,0,0,0,0],"sum_hessian":[6.3E2,1.91E2,4.39E2,1.44E2,4.7E1,5.5E1,3.84E2,8.2E1,6.2E1,1.7E1,3E1,1.2E1,4.3E1,3.4E1,3.5E2,7.3E1,9E0,4.1E1,2.1E1,1E1,7E0,1.6E1,1.4E1,1.6E1,2.7E1,2.7E1,7E0,1.16E2,2.34E2],"tree_param":{"num_deleted":"0","num_feature":"23","num_nodes":"29","size_leaf_vector":"1"}},{"base_weights":[5.7691853E-3,1.1652846E0,-4.1925305E-1,2.564791E-1,3.4057786E0,1.3568039E0,-6.5207404E-1,1.5924469E0,-2.4280825E-1,4.363633E0,9.1556445E-2,3.5236493E-1,5.128446E0,-2.3351552E0,-4.6235365E-1,9.1556445E-2,-1.1023968E-1,2.996848E-3,-7.1653E-2,1.01969756E-1,3.3965448E-1,1.7618246E-2,1.2307548E-1,1.3702027E-1,3.7095547E-1,-6.993773E-2,-1.6637346E-1,1.7618246E-2,-3.162271E-2],"categories":[],"categories_nodes":[],"categories_segments":[],"categories_sizes":[],"default_left":[0,0,0,0,0,0,0,0,0,0,0,0,0,0,0,0,0,0,0,0,0,0,0,0,0,0,0,0,0],"id":29,"left_children":[1,3,5,7,9,11,13,15,17,19,-1,21,23,25,27,-1,-1,-1,-1,-1,-1,-1,-1,-1,-1,-1,-1,-1,-1],"loss_changes":[3.114146E2,3.416618E2,1.9280156E2,8.6658394E1,1.2632214E2,2.0474393E2,1.2865654E2,8.134952E1,3.6476154E1,1.9261627E2,0E0,9.293978E1,8.0063446E1,5.599623E1,8.915459E1,0E0,0E0,0E0,0E0,0E0,0E0,0E0,0E0,0E0,0E0,0E0,0E0,0E0,0E0],"parents":[2147483647,0,0,1,1,2,2,3,3,4,4,5,5,6,6,7,7,8,8,9,9,11,11,12,12,13,13,14,14],"right_children":[2,4,6,8,10,12,14,16,18,20,-1,22,24,26,28,-1,-1,-1,-1,-1,-1,-1,-1,-1,-1,-1,-1,-1,-1],"split_conditions":[-5.1709074E-1,8.919062E-1,-1.2216197E0,-1.1244634E0,-4.7328243E-1,-8.393416E-1,-8.542805E-1,-6.4019847E-1,1.851714E-2,-4.3771672E-1,9.1556445E-2,-9.387557E-2,1.7149532E-1,-2.0817068E-1,-6.1053354E-1,9.1556445E-2,-1.1023968E-1,2.996848E-3,-7.1653E-2,1.01969756E-1,3.3965448E-1,1.7618246E-2,1.2307548E-1,1.3702027E-1,3.7095547E-1,-6.993773E-2,-1.6637346E-1,1.7618246E-2,-3.162271E-2],"split_indices":[10,22,17,13,8,0,18,11,13,13,0,13,8,10,6,0,0,0,0,0,0,0,0,0,0,0,0,0,0],"split_type":[0,0,0,0,0,0,0,0,0,0,0,0,0,0,0,0,0,0,0,0,0,0,0,0,0,0,0,0,0],"sum_hessian":[6.2E2,1.66E2,4.54E2,1.2E2,4.6E1,5.1E1,4.03E2,3.2E1,8.8E1,3.7E1,9E0,4.2E1,9E0,3.8E1,3.65E2,2.9E1,3E0,7.1E1,1.7E1,2.1E1,1.6E1,2.4E1,1.8E1,4E0,5E0,1.5E1,2.3E1,2.4E1,3.41E2],"tree_param":{"num_deleted":"0","num_feature":"23","num_nodes":"29","size_leaf_vector":"1"}},{"base_weights":[-1.9740924E-1,1.3240641E0,-5.2792966E-1,-1.9061064E-2,3.8991764E0,3.5992333E-1,-7.269438E-1,1.9400576E0,-3.1935608E-1,7.781864E0,1.9400576E0,1.0796397E0,-8.718062E-1,-2.7432182E0,-5.4763263E-1,9.7002886E-2,-2.6170413E-3,-3.1955905E-2,6.9597796E-2,9.7002886E-2,4.673651E-1,2.952926E-1,9.7002886E-2,-1.3451867E-1,6.5582626E-2,-2.133317E-1,-7.4769044E-3,-8.227127E-2,-2.0102835E-1,8.104067E-3,-4.6618976E-2],"categories":[],"categories_nodes":[],"categories_segments":[],"categories_sizes":[],"default_left":[0,0,0,0,0,0,0,0,0,0,0,0,0,0,0,0,0,0,0,0,0,0,0,0,0,0,0,0,0,0,0],"id":30,"left_children":[1,3,5,7,9,11,13,15,17,19,21,23,25,27,29,-1,-1,-1,-1,-1,-1,-1,-1,-1,-1,-1,-1,-1,-1,-1,-1],"loss_changes":[3.2223288E2,4.0005005E2,9.42431E1,5.3615417E1,3.6245062E2,9.037695E1,1.5357176E2,8.366104E0,4.220751E1,1.9697699E2,6.3314034E1,6.575462E1,8.966764E1,8.0273254E1,1.10298065E2,0E0,0E0,0E0,0E0,0E0,0E0,0E0,0E0,0E0,0E0,0E0,0E0,0E0,0E0,0E0,0E0],"parents":[2147483647,0,0,1,1,2,2,3,3,4,4,5,5,6,6,7,7,8,8,9,9,10,10,11,11,12,12,13,13,14,14],"right_children":[2,4,6,8,10,12,14,16,18,20,22,24,26,28,30,-1,-1,-1,-1,-1,-1,-1,-1,-1,-1,-1,-1,-1,-1,-1,-1],"split_conditions":[-1.08349E0,8.919062E-1,-4.8734787E-1,-1.1342543E0,-3.0565166E-1,-7.523565E-1,-8.4185237E-1,-7.780891E-1,7.040269E-1,-1.1315616E0,-1.3771361E0,-2.453114E0,-1.0557232E0,-6.869673E-1,3.3441275E-1,9.7002886E-2,-2.6170413E-3,-3.1955905E-2,6.9597796E-2,9.7002886E-2,4.673651E-1,2.952926E-1,9.7002886E-2,-1.3451867E-1,6.5582626E-2,-2.133317E-1,-7.4769044E-3,-8.227127E-2,-2.0102835E-1,8.104067E-3,-4.6618976E-2],"split_indices":[1,22,10,13,20,13,18,4,15,0,7,8,2,1,1,0,0,0,0,0,0,0,0,0,0,0,0,0,0,0,0],"split_type":[0,0,0,0,0,0,0,0,0,0,0,0,0,0,0,0,0,0,0,0,0,0,0,0,0,0,0,0,0,0,0],"sum_hessian":[6.31E2,1.11E2,5.2E2,7.4E1,3.7E1,9.4E1,4.26E2,7E0,6.7E1,1.3E1,2.4E1,6E1,3.4E1,3.2E1,3.94E2,6E0,1E0,5.8E1,9E0,2E0,1.1E1,2E0,2.2E1,2E0,5.8E1,4E0,3E1,1.2E1,2E1,1.38E2,2.56E2],"tree_param":{"num_deleted":"0","num_feature":"23","num_nodes":"31","size_leaf_vector":"1"}},{"base_weights":[-9.64196E-2,1.4253327E0,-4.092158E-1,4.501686E-3,4.3599515E0,-1.643614E-1,-3.4471375E-1,1.6207947E0,-1.6853233E-1,2.1822267E0,6.8681345E0,-5.9927404E-1,9.3927646E-1,-6.442893E-3,1.0911133E-1,-3.1924993E-2,2.8639376E-2,2.198199E-1,1.0911133E-1,1.1301494E-1,4.4135076E-1,-4.2046744E-2,2.0932019E-2,8.984682E-3,1.7731294E-1],"categories":[],"categories_nodes":[],"categories_segments":[],"categories_sizes":[],"default_left":[0,0,0,0,0,0,0,0,0,0,0,0,0,0,0,0,0,0,0,0,0,0,0,0,0],"id":31,"left_children":[1,3,5,7,9,-1,11,13,15,17,19,21,23,-1,-1,-1,-1,-1,-1,-1,-1,-1,-1,-1,-1],"loss_changes":[3.054096E2,4.5179108E2,9.856392E1,2.6543749E1,3.564906E2,0E0,1.728101E2,1.5063608E1,2.6922012E1,1.4514343E1,1.7407654E2,1.0945267E2,1.7087173E2,0E0,0E0,0E0,0E0,0E0,0E0,0E0,0E0,0E0,0E0,0E0,0E0],"parents":[2147483647,0,0,1,1,2,2,3,3,4,4,6,6,7,7,8,8,9,9,10,10,11,11,12,12],"right_children":[2,4,6,8,10,-1,12,14,16,18,20,22,24,-1,-1,-1,-1,-1,-1,-1,-1,-1,-1,-1,-1],"split_conditions":[-1.08349E0,8.919062E-1,-2.0647793E0,-1.916824E0,3.3751383E-1,-1.643614E-1,9.8095214E-1,-1.2663082E0,7.581637E-2,-1.0713193E0,9.044907E-3,1.1536088E0,1.5072763E-2,-6.442893E-3,1.0911133E-1,-3.1924993E-2,2.8639376E-2,2.198199E-1,1.0911133E-1,1.1301494E-1,4.4135076E-1,-4.2046744E-2,2.0932019E-2,8.984682E-3,1.7731294E-1],"split_indices":[1,22,11,8,5,0,5,1,15,9,9,16,11,0,0,0,0,0,0,0,0,0,0,0,0],"split_type":[0,0,0,0,0,0,0,0,0,0,0,0,0,0,0,0,0,0,0,0,0,0,0,0,0],"sum_hessian":[6.32E2,1.06E2,5.26E2,7.3E1,3.3E1,9E0,5.17E2,6E0,6.7E1,1.1E1,2.2E1,4.33E2,8.4E1,2E0,4E0,4.2E1,2.5E1,2E0,9E0,8E0,1.4E1,3.51E2,8.2E1,6.7E1,1.7E1],"tree_param":{"num_deleted":"0","num_feature":"23","num_nodes":"25","size_leaf_vector":"1"}},{"base_weights":[-4.3727614E-2,-5.2635086E-1,8.409527E-1,-6.049363E-1,1.632899E0,-1.3495672E-1,2.924325E0,5.1398134E-1,-7.014948E-1,2.5699068E-2,1.2679744E-1,-1.511514E-1,-5.8015636E-3,4.2969775E0,6.973421E-2,-4.687837E-3,2.5699068E-2,-4.687837E-3,-4.0251072E-2,5.2459847E-2,-1.3225823E-2,1.5246932E-1,3.7948304E-1],"categories":[],"categories_nodes":[],"categories_segments":[],"categories_sizes":[],"default_left":[0,0,0,0,0,0,0,0,0,0,0,0,0,0,0,0,0,0,0,0,0,0,0],"id":32,"left_children":[1,3,5,7,9,11,13,15,17,-1,-1,-1,19,21,-1,-1,-1,-1,-1,-1,-1,-1,-1],"loss_changes":[2.632409E2,7.156608E1,4.451497E2,5.0763336E1,2.0545235E1,5.7929207E1,2.8384393E2,1.9966568E1,2.8606384E1,0E0,0E0,0E0,4.1690117E1,1.7347723E2,0E0,0E0,0E0,0E0,0E0,0E0,0E0,0E0,0E0],"parents":[2147483647,0,0,1,1,2,2,3,3,4,4,5,5,6,6,7,7,8,8,12,12,13,13],"right_children":[2,4,6,8,10,12,14,16,18,-1,-1,-1,20,22,-1,-1,-1,-1,-1,-1,-1,-1,-1],"split_conditions":[5.2167857E-1,2.4390466E0,8.919062E-1,-1.2837994E0,1.3416349E0,-2.0647793E0,-3.7381327E-1,-1.0620071E0,-6.40118E-1,2.5699068E-2,1.2679744E-1,-1.511514E-1,-1.5089905E0,2.0928887E-1,6.973421E-2,-4.687837E-3,2.5699068E-2,-4.687837E-3,-4.0251072E-2,5.2459847E-2,-1.3225823E-2,1.5246932E-1,3.7948304E-1],"split_indices":[5,3,22,17,14,11,17,18,10,0,0,0,8,8,0,0,0,0,0,0,0,0,0],"split_type":[0,0,0,0,0,0,0,0,0,0,0,0,0,0,0,0,0,0,0,0,0,0,0],"sum_hessian":[6.07E2,3.94E2,2.13E2,3.82E2,1.2E1,1.46E2,6.7E1,2.4E1,3.58E2,5E0,7E0,4E0,1.42E2,5.1E1,1.6E1,4E0,2E1,4.1E1,3.17E2,2.6E1,1.16E2,4E1,1.1E1],"tree_param":{"num_deleted":"0","num_feature":"23","num_nodes":"23","size_leaf_vector":"1"}},{"base_weights":[-1.4907743E-1,5.273507E-1,-5.022019E-1,-9.8456603E-1,9.385547E-1,-2.5270157E0,-3.4933943E-1,1.7904288E-1,-1.5914118E0,2.5981603E0,3.759148E-1,-1.4381776E0,-1.953256E-1,1.1011057E0,-5.039749E-1,-2.9838948E-2,2.2653654E-1,-1.1657573E-1,-6.5518343E-3,-7.7530495E-3,2.2613779E-1,7.0779272E-3,1.8800819E-1,-1.1635687E-1,-7.1908884E-2,1.4928269E-2,2.3053233E-1,-7.1908884E-2,-1.88826E-2],"categories":[],"categories_nodes":[],"categories_segments":[],"categories_sizes":[],"default_left":[0,0,0,0,0,0,0,0,0,0,0,0,0,0,0,0,0,0,0,0,0,0,0,0,0,0,0,0,0],"id":33,"left_children":[1,3,5,7,9,11,13,15,17,19,21,23,-1,25,27,-1,-1,-1,-1,-1,-1,-1,-1,-1,-1,-1,-1,-1,-1],"loss_changes":[1.5059961E2,1.3701707E2,1.2700878E2,3.6036045E1,1.5694911E2,6.290915E1,8.915169E1,7.663284E1,3.2174355E1,2.3248074E2,1.04397804E2,3.1729546E0,0E0,1.131685E2,6.780565E1,0E0,0E0,0E0,0E0,0E0,0E0,0E0,0E0,0E0,0E0,0E0,0E0,0E0,0E0],"parents":[2147483647,0,0,1,1,2,2,3,3,4,4,5,5,6,6,7,7,8,8,9,9,10,10,11,11,13,13,14,14],"right_children":[2,4,6,8,10,12,14,16,18,20,22,24,-1,26,28,-1,-1,-1,-1,-1,-1,-1,-1,-1,-1,-1,-1,-1,-1],"split_conditions":[-6.295473E-1,4.8137583E-2,-1.0371087E0,-4.9178805E-2,-1.2156354E0,4.9450415E-1,-1.0930433E0,-9.946515E-2,1.1862924E0,-3.1747082E-1,-8.8907146E-1,-3.981296E-1,-1.953256E-1,2.2692266E-1,-1.2066802E0,-2.9838948E-2,2.2653654E-1,-1.1657573E-1,-6.5518343E-3,-7.7530495E-3,2.2613779E-1,7.0779272E-3,1.8800819E-1,-1.1635687E-1,-7.1908884E-2,1.4928269E-2,2.3053233E-1,-7.1908884E-2,-1.88826E-2],"split_indices":[1,5,16,9,1,10,7,9,9,9,0,13,0,8,11,0,0,0,0,0,0,0,0,0,0,0,0,0,0],"split_type":[0,0,0,0,0,0,0,0,0,0,0,0,0,0,0,0,0,0,0,0,0,0,0,0,0,0,0,0,0],"sum_hessian":[6.19E2,2.11E2,4.08E2,4.4E1,1.67E2,2.6E1,3.82E2,1.5E1,2.9E1,4E1,1.27E2,1.2E1,1.4E1,3.5E1,3.47E2,1.4E1,1E0,1.8E1,1.1E1,1.7E1,2.3E1,1.21E2,6E0,5E0,7E0,3E1,5E0,1.4E1,3.33E2],"tree_param":{"num_deleted":"0","num_feature":"23","num_nodes":"29","size_leaf_vector":"1"}},{"base_weights":[-1.8817289E-2,-6.001324E-1,5.8370274E-1,-9.553146E-2,-8.1050783E-1,1.8108755E0,-8.214831E-3,-8.214831E-3,-1.9784696E0,-2.2954109E0,-5.471261E-1,1.1857321E0,5.8046923E0,9.0133035E-1,-8.214831E-3,-1.0980363E-1,-4.1074157E-4,-1.44904E-1,-1.929856E-2,-7.106342E-2,-1.6865347E-1,-5.3783894E-2,-7.3719383E-3,1.5203115E-1,4.5066517E-2,4.5066517E-2,3.6270595E-1,4.5066517E-2,-0E0,-4.1074157E-4,4.5066517E-2],"categories":[],"categories_nodes":[],"categories_segments":[],"categories_sizes":[],"default_left":[0,0,0,0,0,0,0,0,0,0,0,0,0,0,0,0,0,0,0,0,0,0,0,0,0,0,0,0,0,0,0],"id":34,"left_children":[1,3,5,7,9,11,13,15,17,19,21,23,25,27,29,-1,-1,-1,-1,-1,-1,-1,-1,-1,-1,-1,-1,-1,-1,-1,-1],"loss_changes":[2.2475784E2,3.3945343E1,3.2698108E2,3.7948082E1,8.748863E1,3.1667166E2,3.9570827E1,3.7882637E1,1.02702675E1,3.0042068E1,4.121773E1,1.8949507E2,1.1719684E2,1.9343109E0,2.2890213E1,0E0,0E0,0E0,0E0,0E0,0E0,0E0,0E0,0E0,0E0,0E0,0E0,0E0,0E0,0E0,0E0],"parents":[2147483647,0,0,1,1,2,2,3,3,4,4,5,5,6,6,7,7,8,8,9,9,10,10,11,11,12,12,13,13,14,14],"right_children":[2,4,6,8,10,12,14,16,18,20,22,24,26,28,30,-1,-1,-1,-1,-1,-1,-1,-1,-1,-1,-1,-1,-1,-1,-1,-1],"split_conditions":[1.6237538E-1,-3.6432064E-1,-4.4969168E-1,1.6289158E0,-1.0371087E0,2.3357902E-1,-1.1639978E0,-1.5574306E0,-1.0512327E0,4.9450415E-1,-1.0065331E0,-3.0565166E-1,-1.0950398E0,-5.9848243E-1,1.8255793E0,-1.0980363E-1,-4.1074157E-4,-1.44904E-1,-1.929856E-2,-7.106342E-2,-1.6865347E-1,-5.3783894E-2,-7.3719383E-3,1.5203115E-1,4.5066517E-2,4.5066517E-2,3.6270595E-1,4.5066517E-2,-0E0,-4.1074157E-4,4.5066517E-2],"split_indices":[22,10,6,20,16,8,10,20,13,10,5,20,0,8,13,0,0,0,0,0,0,0,0,0,0,0,0,0,0,0,0],"split_type":[0,0,0,0,0,0,0,0,0,0,0,0,0,0,0,0,0,0,0,0,0,0,0,0,0,0,0,0,0,0,0],"sum_hessian":[6.31E2,3.22E2,3.09E2,9.7E1,2.25E2,1.29E2,1.8E2,9E1,7E0,3.1E1,1.94E2,1.14E2,1.5E1,7E0,1.73E2,5E0,8.5E1,3E0,4E0,1.8E1,1.3E1,8.1E1,1.13E2,4.1E1,7.3E1,4E0,1.1E1,6E0,1E0,1.61E2,1.2E1],"tree_param":{"num_deleted":"0","num_feature":"23","num_nodes":"31","size_leaf_vector":"1"}},{"base_weights":[-1.9879557E-1,4.5022044E-1,-5.583344E-1,-1.1251994E-1,1.9278929E0,-2.2321606E0,-3.8140556E-1,-5.4017353E-1,9.076865E-1,9.076865E-1,3.306446E0,-1.3067831E0,-2.9489162E0,-4.484354E-1,1.9677314E0,-1.6866814E-2,-1.251249E-1,4.5384325E-2,9.187824E-3,1.7345168E-1,4.5384325E-2,2.2676852E-1,4.5384325E-2,-9.673408E-2,-6.5339155E-2,-6.5339155E-2,-1.8122204E-1,-5.149283E-2,-4.019461E-3,3.79824E-2,1.494843E-1],"categories":[],"categories_nodes":[],"categories_segments":[],"categories_sizes":[],"default_left":[0,0,0,0,0,0,0,0,0,0,0,0,0,0,0,0,0,0,0,0,0,0,0,0,0,0,0,0,0,0,0],"id":35,"left_children":[1,3,5,7,9,11,13,15,17,19,21,23,25,27,29,-1,-1,-1,-1,-1,-1,-1,-1,-1,-1,-1,-1,-1,-1,-1,-1],"loss_changes":[1.4550511E2,1.8753821E2,1.17365005E2,7.375048E1,1.6202708E2,2.5659393E1,6.131635E1,4.584487E1,1.2271957E1,7.5640396E1,1.8436505E2,6.0022736E-1,1.9183502E1,7.580021E1,1.1160469E1,0E0,0E0,0E0,0E0,0E0,0E0,0E0,0E0,0E0,0E0,0E0,0E0,0E0,0E0,0E0,0E0],"parents":[2147483647,0,0,1,1,2,2,3,3,4,4,5,5,6,6,7,7,8,8,9,9,10,10,11,11,12,12,13,13,14,14],"right_children":[2,4,6,8,10,12,14,16,18,20,22,24,26,28,30,-1,-1,-1,-1,-1,-1,-1,-1,-1,-1,-1,-1,-1,-1,-1,-1],"split_conditions":[-8.480545E-2,8.919062E-1,-7.272912E-1,1.1171411E-1,-6.683191E-1,1.0420939E-1,2.8281589E0,1.5151176E0,1.8858323E-1,-1.2137383E0,-2.2812383E-1,-1.2524002E0,-1.0057691E0,-3.8477278E-1,1.5705959E0,-1.6866814E-2,-1.251249E-1,4.5384325E-2,9.187824E-3,1.7345168E-1,4.5384325E-2,2.2676852E-1,4.5384325E-2,-9.673408E-2,-6.5339155E-2,-6.5339155E-2,-1.8122204E-1,-5.149283E-2,-4.019461E-3,3.79824E-2,1.494843E-1],"split_indices":[10,22,14,15,11,5,3,20,11,7,6,15,19,22,0,0,0,0,0,0,0,0,0,0,0,0,0,0,0,0,0],"split_type":[0,0,0,0,0,0,0,0,0,0,0,0,0,0,0,0,0,0,0,0,0,0,0,0,0,0,0,0,0,0,0],"sum_hessian":[6.12E2,2.17E2,3.95E2,1.58E2,5.9E1,3.5E1,3.6E2,1.13E2,4.5E1,2.2E1,3.7E1,1.5E1,2E1,3.52E2,8E0,1.05E2,8E0,2.4E1,2.1E1,9E0,1.3E1,2.9E1,8E0,5E0,1E1,7E0,1.3E1,1.34E2,2.18E2,5E0,3E0],"tree_param":{"num_deleted":"0","num_feature":"23","num_nodes":"31","size_leaf_vector":"1"}},{"base_weights":[-1.3549788E-1,1.0573168E0,-3.9531267E-1,-7.1412544E-3,3.6363008E0,2.661839E0,-4.4967297E-1,-9.034576E-1,1.080557E0,6.1296678E0,1.8145797E0,-5.416556E-2,1.7629054E-1,-4.9509978E-1,2.077998E0,4.427485E-3,-5.8943965E-2,1.1040992E-2,9.072899E-2,9.072899E-2,4.007415E-1,9.072899E-2,1.5095393E-1,-3.3799154E-3,-3.8330577E-2,3.9572455E-2,1.15764655E-1],"categories":[],"categories_nodes":[],"categories_segments":[],"categories_sizes":[],"default_left":[0,0,0,0,0,0,0,0,0,0,0,0,0,0,0,0,0,0,0,0,0,0,0,0,0,0,0],"id":36,"left_children":[1,3,5,7,9,11,13,15,17,19,21,-1,-1,23,25,-1,-1,-1,-1,-1,-1,-1,-1,-1,-1,-1,-1],"loss_changes":[1.9712236E2,3.16318E2,9.1533134E1,8.469779E1,2.7990503E2,4.309748E1,6.3281853E1,1.9522583E1,3.2721603E1,2.212547E2,1.7604065E-1,0E0,0E0,5.8124428E1,2.901741E0,0E0,0E0,0E0,0E0,0E0,0E0,0E0,0E0,0E0,0E0,0E0,0E0],"parents":[2147483647,0,0,1,1,2,2,3,3,4,4,5,5,6,6,7,7,8,8,9,9,10,10,13,13,14,14],"right_children":[2,4,6,8,10,12,14,16,18,20,22,-1,-1,24,26,-1,-1,-1,-1,-1,-1,-1,-1,-1,-1,-1,-1],"split_conditions":[-1.08349E0,8.919062E-1,-1.9443784E0,-1.2162123E-1,4.909349E-1,-1.3970729E0,1.7669604E0,-1.5608134E0,1.1737235E0,-1.134418E0,-1.0892912E0,-5.416556E-2,1.7629054E-1,-3.0565166E-1,9.901384E-1,4.427485E-3,-5.8943965E-2,1.1040992E-2,9.072899E-2,9.072899E-2,4.007415E-1,9.072899E-2,1.5095393E-1,-3.3799154E-3,-3.8330577E-2,3.9572455E-2,1.15764655E-1],"split_indices":[1,22,13,15,20,5,0,6,20,19,0,0,0,20,2,0,0,0,0,0,0,0,0,0,0,0,0],"split_type":[0,0,0,0,0,0,0,0,0,0,0,0,0,0,0,0,0,0,0,0,0,0,0,0,0,0,0],"sum_hessian":[6.25E2,1.1E2,5.15E2,7.9E1,3.1E1,7E0,5.08E2,4.4E1,3.5E1,1.9E1,1.2E1,1E0,6E0,5.01E2,7E0,6E0,3.8E1,2.2E1,1.3E1,5E0,1.4E1,1.1E1,1E0,1.97E2,3.04E2,1E0,6E0],"tree_param":{"num_deleted":"0","num_feature":"23","num_nodes":"27","size_leaf_vector":"1"}},{"base_weights":[2.995924E-3,1.2121664E0,-2.5905687E-1,-6.0151592E-2,2.459496E0,-1.4267857E-1,-1.8608171E0,-8.5942686E-1,1.2440978E0,1.3381784E-1,4.1124854E0,-4.3268514E-1,7.483194E-1,-0E0,-3.0343626E0,6.8831585E-2,-7.5314134E-2,9.9614635E-2,-6.2425967E-2,5.1859893E-2,-8.45972E-2,8.929795E-3,3.147897E-1,-5.991022E-2,-5.9386673E-3,1.8903607E-3,2.453163E-1,4.6366956E-2,-4.932637E-2,-1.6979317E-1,-7.585906E-2],"categories":[],"categories_nodes":[],"categories_segments":[],"categories_sizes":[],"default_left":[0,0,0,0,0,0,0,0,0,0,0,0,0,0,0,0,0,0,0,0,0,0,0,0,0,0,0,0,0,0,0],"id":37,"left_children":[1,3,5,7,9,11,13,15,17,19,21,23,25,27,29,-1,-1,-1,-1,-1,-1,-1,-1,-1,-1,-1,-1,-1,-1,-1,-1],"loss_changes":[2.0192542E2,1.8305417E2,9.6582794E1,6.526039E1,2.1735294E2,1.2669671E2,7.79718E1,6.1840897E1,5.0741226E1,5.092894E1,2.7943414E2,8.787848E1,3.5168558E2,1.9353245E1,4.251831E0,0E0,0E0,0E0,0E0,0E0,0E0,0E0,0E0,0E0,0E0,0E0,0E0,0E0,0E0,0E0,0E0],"parents":[2147483647,0,0,1,1,2,2,3,3,4,4,5,5,6,6,7,7,8,8,9,9,10,10,11,11,12,12,13,13,14,14],"right_children":[2,4,6,8,10,12,14,16,18,20,22,24,26,28,30,-1,-1,-1,-1,-1,-1,-1,-1,-1,-1,-1,-1,-1,-1,-1,-1],"split_conditions":[-1.08349E0,3.5760525E-1,1.4627575E0,-4.033866E-1,9.660715E-2,6.7850876E-1,-1.2020303E0,-9.250744E-1,5.135052E-1,3.5654694E-2,-1.3001517E0,4.702906E-1,2.3357902E-1,-1.436432E0,7.101398E-1,6.8831585E-2,-7.5314134E-2,9.9614635E-2,-6.2425967E-2,5.1859893E-2,-8.45972E-2,8.929795E-3,3.147897E-1,-5.991022E-2,-5.9386673E-3,1.8903607E-3,2.453163E-1,4.6366956E-2,-4.932637E-2,-1.6979317E-1,-7.585906E-2],"split_indices":[1,5,9,11,9,5,17,13,13,11,19,16,8,11,10,0,0,0,0,0,0,0,0,0,0,0,0,0,0,0,0],"split_type":[0,0,0,0,0,0,0,0,0,0,0,0,0,0,0,0,0,0,0,0,0,0,0,0,0,0,0,0,0,0,0],"sum_hessian":[6.21E2,1.1E2,5.11E2,5.5E1,5.5E1,4.79E2,3.2E1,3.5E1,2E1,2.4E1,3.1E1,3.63E2,1.16E2,1.3E1,1.9E1,7E0,2.8E1,1.6E1,4E0,1.7E1,7E0,1.2E1,1.9E1,1.03E2,2.6E2,1.01E2,1.5E1,7E0,6E0,1.4E1,5E0],"tree_param":{"num_deleted":"0","num_feature":"23","num_nodes":"31","size_leaf_vector":"1"}},{"base_weights":[-7.203493E-2,5.7724935E-1,-4.8289388E-1,2.7605313E-1,5.500664E0,-8.226501E-1,1.8032644E-2,5.212745E-1,-1.8918419E0,1.4441793E-1,3.3730966E-1,-6.8691516E-1,-2.334671E0,-1.9223064E-1,9.7532225E-1,1.1314222E-3,9.382003E-2,-1.644695E-1,1.3348371E-2,-6.4469E-2,-2.0115435E-2,-1.2756597E-1,-7.5539656E-2,-1.661416E-2,9.683272E-2,1.0130918E-1,2.510458E-2],"categories":[],"categories_nodes":[],"categories_segments":[],"categories_sizes":[],"default_left":[0,0,0,0,0,0,0,0,0,0,0,0,0,0,0,0,0,0,0,0,0,0,0,0,0,0,0],"id":38,"left_children":[1,3,5,7,9,11,13,15,17,-1,-1,19,21,23,25,-1,-1,-1,-1,-1,-1,-1,-1,-1,-1,-1,-1],"loss_changes":[1.7316849E2,3.6934787E2,6.860586E1,1.3033684E2,2.4213837E1,4.6604065E1,3.5662365E1,1.453774E2,8.051671E1,0E0,0E0,5.9389885E1,9.734726E-1,4.3192642E1,1.3461962E1,0E0,0E0,0E0,0E0,0E0,0E0,0E0,0E0,0E0,0E0,0E0,0E0],"parents":[2147483647,0,0,1,1,2,2,3,3,4,4,5,5,6,6,7,7,8,8,11,11,12,12,13,13,14,14],"right_children":[2,4,6,8,10,12,14,16,18,-1,-1,20,22,24,26,-1,-1,-1,-1,-1,-1,-1,-1,-1,-1,-1,-1],"split_conditions":[-4.832207E-1,-8.7558967E-1,8.039892E-1,-6.689931E-1,-7.60844E-1,1.8521521E0,-2.2538161E-1,8.919062E-1,1.2879261E0,1.4441793E-1,3.3730966E-1,-2.0239006E-1,9.7817487E-1,1.7669604E0,2.836003E-1,1.1314222E-3,9.382003E-2,-1.644695E-1,1.3348371E-2,-6.4469E-2,-2.0115435E-2,-1.2756597E-1,-7.5539656E-2,-1.661416E-2,9.683272E-2,1.0130918E-1,2.510458E-2],"split_indices":[1,0,3,1,20,6,5,22,5,0,0,22,14,0,10,0,0,0,0,0,0,0,0,0,0,0,0],"split_type":[0,0,0,0,0,0,0,0,0,0,0,0,0,0,0,0,0,0,0,0,0,0,0,0,0,0,0],"sum_hessian":[6.38E2,2.46E2,3.92E2,2.34E2,1.2E1,2.34E2,1.58E2,2.12E2,2.2E1,5E0,7E0,2.18E2,1.6E1,1.3E2,2.8E1,1.57E2,5.5E1,1.3E1,9E0,9.5E1,1.23E2,1.4E1,2E0,1.24E2,6E0,6E0,2.2E1],"tree_param":{"num_deleted":"0","num_feature":"23","num_nodes":"27","size_leaf_vector":"1"}},{"base_weights":[-4.0935025E-2,-6.774005E-1,3.1764975E-1,-9.803745E-1,-1.7987539E-1,8.148236E-1,-1.7987539E-1,-5.80125E-1,-2.388933E0,-5.80125E-1,-1.7987539E-1,-5.756256E-2,1.3110106E0,-1.7987539E-1,9.7653985E-1,-7.1411096E-2,-2.9006248E-2,-1.5981527E-1,-4.8485916E-2,-2.9006248E-2,-1.9000009E-2,-1.9000009E-2,-8.99377E-3,7.183384E-2,-8.99377E-3,1.2150182E-2,1.4175253E-1,3.206215E-2,-8.99377E-3,-8.99377E-3,7.946089E-2],"categories":[],"categories_nodes":[],"categories_segments":[],"categories_sizes":[],"default_left":[0,0,0,0,0,0,0,0,0,0,0,0,0,0,0,0,0,0,0,0,0,0,0,0,0,0,0,0,0,0,0],"id":39,"left_children":[1,3,5,7,9,11,13,15,17,19,21,23,25,27,29,-1,-1,-1,-1,-1,-1,-1,-1,-1,-1,-1,-1,-1,-1,-1,-1],"loss_changes":[1.4921997E2,4.0908676E1,1.5248738E2,1.2813562E2,1.4729672E1,1.13325745E2,3.0331339E1,1.7566273E1,4.5897583E1,1.2961655E0,1.4015427E0,6.9951004E1,2.6601837E2,6.971405E0,2.0022787E1,0E0,0E0,0E0,0E0,0E0,0E0,0E0,0E0,0E0,0E0,0E0,0E0,0E0,0E0,0E0,0E0],"parents":[2147483647,0,0,1,1,2,2,3,3,4,4,5,5,6,6,7,7,8,8,9,9,10,10,11,11,12,12,13,13,14,14],"right_children":[2,4,6,8,10,12,14,16,18,20,22,24,26,28,30,-1,-1,-1,-1,-1,-1,-1,-1,-1,-1,-1,-1,-1,-1,-1,-1],"split_conditions":[-3.8477278E-1,6.098478E-1,2.3876743E-1,4.1879508E-1,-1.1143036E0,-6.4905345E-1,1.8012514E0,-9.2932045E-1,7.087192E-1,9.4612724E-1,5.628471E-1,-7.60844E-1,-2.7570194E-1,2.6279694E-1,8.220135E-1,-7.1411096E-2,-2.9006248E-2,-1.5981527E-1,-4.8485916E-2,-2.9006248E-2,-1.9000009E-2,-1.9000009E-2,-8.99377E-3,7.183384E-2,-8.99377E-3,1.2150182E-2,1.4175253E-1,3.206215E-2,-8.99377E-3,-8.99377E-3,7.946089E-2],"split_indices":[22,12,1,10,22,11,13,15,13,20,16,20,9,17,10,0,0,0,0,0,0,0,0,0,0,0,0,0,0,0,0],"split_type":[0,0,0,0,0,0,0,0,0,0,0,0,0,0,0,0,0,0,0,0,0,0,0,0,0,0,0,0,0,0,0],"sum_hessian":[6.4E2,2.31E2,4.09E2,1.51E2,8E1,2.54E2,1.55E2,1.07E2,4.4E1,3.7E1,4.3E1,9.2E1,1.62E2,1.36E2,1.9E1,2.1E1,8.6E1,2.6E1,1.8E1,3.2E1,5E0,8E0,3.5E1,2.4E1,6.8E1,9.7E1,6.5E1,6E0,1.3E2,6E0,1.3E1],"tree_param":{"num_deleted":"0","num_feature":"23","num_nodes":"31","size_leaf_vector":"1"}},{"base_weights":[-9.789348E-2,6.129759E-1,-4.672231E-1,4.4598106E-1,4.2250834E0,-2.7657542E0,-3.8866666E-1,7.6611364E-1,-1.3313802E0,1.1677661E-1,2.595823E-1,4.047387E-1,-2.4867485E-1,1.8222606E0,-4.738365E-1,-7.5333463E-3,7.903943E-2,-1.9798243E-2,-1.9568177E-1,3.8041662E-2,-1.2197145E-2,-2.0006686E-2,1.9959445E-1,-2.6080603E-2,1.3034633E-1],"categories":[],"categories_nodes":[],"categories_segments":[],"categories_sizes":[],"default_left":[0,0,0,0,0,0,0,0,0,0,0,0,0,0,0,0,0,0,0,0,0,0,0,0,0],"id":40,"left_children":[1,3,5,7,9,11,13,15,17,-1,-1,19,-1,21,23,-1,-1,-1,-1,-1,-1,-1,-1,-1,-1],"loss_changes":[1.6753252E2,1.2936516E2,7.518483E1,1.23127914E2,1.5991791E1,1.04814896E2,8.045659E1,1.3678148E2,7.584291E1,0E0,0E0,3.7051094E0,0E0,8.425241E1,6.3640236E1,0E0,0E0,0E0,0E0,0E0,0E0,0E0,0E0,0E0,0E0],"parents":[2147483647,0,0,1,1,2,2,3,3,4,4,5,5,6,6,7,7,8,8,11,11,13,13,14,14],"right_children":[2,4,6,8,10,12,14,16,18,-1,-1,20,-1,22,24,-1,-1,-1,-1,-1,-1,-1,-1,-1,-1],"split_conditions":[-6.295473E-1,-8.8907146E-1,-5.828552E-1,-4.0395457E-1,-7.60844E-1,-7.273186E-1,-4.6962443E-1,-1.1414089E0,-7.0531535E-1,1.1677661E-1,2.595823E-1,1.3768238E0,-2.4867485E-1,-9.097846E-1,2.8281589E0,-7.5333463E-3,7.903943E-2,-1.9798243E-2,-1.9568177E-1,3.8041662E-2,-1.2197145E-2,-2.0006686E-2,1.9959445E-1,-2.6080603E-2,1.3034633E-1],"split_indices":[1,0,1,8,20,10,1,19,6,0,0,5,0,0,3,0,0,0,0,0,0,0,0,0,0],"split_type":[0,0,0,0,0,0,0,0,0,0,0,0,0,0,0,0,0,0,0,0,0,0,0,0,0],"sum_hessian":[6.27E2,2.13E2,4.14E2,2.06E2,7E0,1.1E1,4.03E2,1.76E2,3E1,2E0,5E0,5E0,6E0,1.3E1,3.9E2,8.3E1,9.3E1,2.4E1,6E0,4E0,1E0,7E0,6E0,3.86E2,4E0],"tree_param":{"num_deleted":"0","num_feature":"23","num_nodes":"25","size_leaf_vector":"1"}},{"base_weights":[-7.6345935E-2,7.4586135E-1,-3.2648626E-1,1.12690665E-1,2.5609167E0,-1.0765448E0,-1.3076049E-1,3.8086444E-1,-2.0575392E0,4.4733305E0,1.3368037E0,1.9368348E-1,-1.9397018E0,-2.9778624E-1,2.1535006E0,-4.536588E-3,6.684019E-2,-1.19940355E-1,-0E0,6.684019E-2,3.130583E-1,1.7980395E-1,6.684019E-2,-1.275968E-2,1.2948565E-1,-1.3882843E-1,-6.7125514E-2,-7.653934E-2,-6.17005E-4,2.6453504E-1,-3.549092E-3],"categories":[],"categories_nodes":[],"categories_segments":[],"categories_sizes":[],"default_left":[0,0,0,0,0,0,0,0,0,0,0,0,0,0,0,0,0,0,0,0,0,0,0,0,0,0,0,0,0,0,0],"id":41,"left_children":[1,3,5,7,9,11,13,15,17,19,21,23,25,27,29,-1,-1,-1,-1,-1,-1,-1,-1,-1,-1,-1,-1,-1,-1,-1,-1],"loss_changes":[1.3019034E2,1.6724449E2,7.073956E1,6.85619E1,1.6123956E2,1.12058914E2,1.5057558E2,7.487733E1,7.4236755E0,1.7155942E2,1.6257439E1,5.305515E1,2.2270966E1,1.27613655E2,1.9383197E2,0E0,0E0,0E0,0E0,0E0,0E0,0E0,0E0,0E0,0E0,0E0,0E0,0E0,0E0,0E0,0E0],"parents":[2147483647,0,0,1,1,2,2,3,3,4,4,5,5,6,6,7,7,8,8,9,9,10,10,11,11,12,12,13,13,14,14],"right_children":[2,4,6,8,10,12,14,16,18,20,22,24,26,28,30,-1,-1,-1,-1,-1,-1,-1,-1,-1,-1,-1,-1,-1,-1,-1,-1],"split_conditions":[-7.273186E-1,8.919062E-1,-8.044949E-1,1.6289158E0,4.909349E-1,-1.1379024E0,1.2471832E0,1.1737235E0,-1.0663009E0,-1.2909653E0,-1.3006763E0,-1.1670846E0,-9.605393E-1,-6.60478E-1,-1.1672974E0,-4.536588E-3,6.684019E-2,-1.19940355E-1,-0E0,6.684019E-2,3.130583E-1,1.7980395E-1,6.684019E-2,-1.275968E-2,1.2948565E-1,-1.3882843E-1,-6.7125514E-2,-7.653934E-2,-6.17005E-4,2.6453504E-1,-3.549092E-3],"split_indices":[10,22,11,20,20,19,5,20,12,12,6,19,19,13,13,0,0,0,0,0,0,0,0,0,0,0,0,0,0,0,0],"split_type":[0,0,0,0,0,0,0,0,0,0,0,0,0,0,0,0,0,0,0,0,0,0,0,0,0,0,0,0,0,0,0],"sum_hessian":[6.21E2,1.43E2,4.78E2,1.08E2,3.5E1,9.6E1,3.82E2,9.8E1,1E1,2E1,1.5E1,3.9E1,5.7E1,3.58E2,2.4E1,7.9E1,1.9E1,8E0,2E0,6E0,1.4E1,1E0,1.4E1,3.4E1,5E0,2E1,3.7E1,6.5E1,2.93E2,9E0,1.5E1],"tree_param":{"num_deleted":"0","num_feature":"23","num_nodes":"31","size_leaf_vector":"1"}},{"base_weights":[-1.1399865E-1,7.40656E-1,-2.9949918E-1,-3.9382543E-2,2.6307116E0,-2.0912313E-1,-2.6729834E-1,1.2956645E0,-3.6495823E-1,1.2956645E0,6.5659356E0,-3.2442677E-1,1.5531468E0,6.478323E-2,-1.4518491E-2,-8.764529E-2,2.2126373E-3,2.166579E-1,6.478323E-2,6.478323E-2,4.0824047E-1,-3.5406098E-2,-2.0997494E-3,3.0718002E-2,1.2279769E-1],"categories":[],"categories_nodes":[],"categories_segments":[],"categories_sizes":[],"default_left":[0,0,0,0,0,0,0,0,0,0,0,0,0,0,0,0,0,0,0,0,0,0,0,0,0],"id":42,"left_children":[1,3,5,7,9,-1,11,13,15,17,19,21,23,-1,-1,-1,-1,-1,-1,-1,-1,-1,-1,-1,-1],"loss_changes":[1.0442948E2,1.7620375E2,6.838339E1,4.7910645E1,2.4944644E2,0E0,5.8327145E1,1.2392097E1,4.562156E1,1.04207535E2,7.1788025E1,5.617627E1,1.4081352E1,0E0,0E0,0E0,0E0,0E0,0E0,0E0,0E0,0E0,0E0,0E0,0E0],"parents":[2147483647,0,0,1,1,2,2,3,3,4,4,6,6,7,7,8,8,9,9,10,10,11,11,12,12],"right_children":[2,4,6,8,10,-1,12,14,16,18,20,22,24,-1,-1,-1,-1,-1,-1,-1,-1,-1,-1,-1,-1],"split_conditions":[-1.08349E0,8.919062E-1,-1.0731994E0,-1.1244634E0,-9.387557E-2,-2.0912313E-1,2.4822812E0,-7.780891E-1,-1.0208551E0,-3.0565166E-1,-1.1158442E0,-2.0239006E-1,1.5705959E0,6.478323E-2,-1.4518491E-2,-8.764529E-2,2.2126373E-3,2.166579E-1,6.478323E-2,6.478323E-2,4.0824047E-1,-3.5406098E-2,-2.0997494E-3,3.0718002E-2,1.2279769E-1],"split_indices":[1,22,1,13,13,0,3,4,14,20,0,22,0,0,0,0,0,0,0,0,0,0,0,0,0],"split_type":[0,0,0,0,0,0,0,0,0,0,0,0,0,0,0,0,0,0,0,0,0,0,0,0,0],"sum_hessian":[6.45E2,1.13E2,5.32E2,8.1E1,3.2E1,2E0,5.3E2,1.1E1,7E1,2.3E1,9E0,5.16E2,1.4E1,8E0,3E0,1.5E1,5.5E1,9E0,1.4E1,3E0,6E0,2.16E2,3E2,8E0,6E0],"tree_param":{"num_deleted":"0","num_feature":"23","num_nodes":"25","size_leaf_vector":"1"}},{"base_weights":[8.914014E-3,9.033942E-1,-2.0010214E-1,-2.0298848E0,1.1946839E0,-1.164086E-1,-1.4157369E0,-1.5829103E-1,-2.0880023E-2,-3.5850042E-1,1.6831973E0,-2.5553685E-1,9.1689885E-1,6.9569117E-1,-1.913757E0,-2.0880023E-2,1.8506615E-1,1.0719466E-1,-2.0880023E-2,-2.3413925E-2,3.025168E-2,1.5938728E-1,-4.4162817E-2,-2.3522586E-2,7.751645E-2,-1.1900367E-1,-2.9581815E-2],"categories":[],"categories_nodes":[],"categories_segments":[],"categories_sizes":[],"default_left":[0,0,0,0,0,0,0,0,0,0,0,0,0,0,0,0,0,0,0,0,0,0,0,0,0,0,0],"id":43,"left_children":[1,3,5,7,9,11,13,-1,-1,15,17,19,21,23,25,-1,-1,-1,-1,-1,-1,-1,-1,-1,-1,-1,-1],"loss_changes":[1.1748706E2,1.0862606E2,5.1265755E1,3.3750744E1,8.617067E1,6.905626E1,3.8865807E1,0E0,0E0,7.577508E1,1.0667444E2,7.786022E1,2.3907706E2,1.2165175E1,1.2357613E1,0E0,0E0,0E0,0E0,0E0,0E0,0E0,0E0,0E0,0E0,0E0,0E0],"parents":[2147483647,0,0,1,1,2,2,3,3,4,4,5,5,6,6,9,9,10,10,11,11,12,12,13,13,14,14],"right_children":[2,4,6,8,10,12,14,-1,-1,16,18,20,22,24,26,-1,-1,-1,-1,-1,-1,-1,-1,-1,-1,-1,-1],"split_conditions":[-1.0426475E0,-1.1302614E0,1.4464879E0,3.5360537E-2,4.8137583E-2,1.2471832E0,-2.0817068E-1,-1.5829103E-1,-2.0880023E-2,1.571932E-1,1.1251503E0,1.1536088E0,-9.715806E-1,-1.9457151E0,-1.2066802E0,-2.0880023E-2,1.8506615E-1,1.0719466E-1,-2.0880023E-2,-2.3413925E-2,3.025168E-2,1.5938728E-1,-4.4162817E-2,-2.3522586E-2,7.751645E-2,-1.1900367E-1,-2.9581815E-2],"split_indices":[1,0,9,13,5,5,10,0,0,13,5,16,13,11,11,0,0,0,0,0,0,0,0,0,0,0,0],"split_type":[0,0,0,0,0,0,0,0,0,0,0,0,0,0,0,0,0,0,0,0,0,0,0,0,0,0,0],"sum_hessian":[6.09E2,1.15E2,4.94E2,9E0,1.06E2,4.65E2,2.9E1,6E0,3E0,2.5E1,8.1E1,4.12E2,5.3E1,5E0,2.4E1,2.3E1,2E0,7E1,1.1E1,3.32E2,8E1,2.3E1,3E1,2E0,3E0,1.6E1,8E0],"tree_param":{"num_deleted":"0","num_feature":"23","num_nodes":"27","size_leaf_vector":"1"}},{"base_weights":[-2.5450481E-2,1.115979E0,-1.8303472E-1,6.5065296E-3,3.42754E0,-1.3031876E-1,-1.3317205E-1,-1.0833035E0,1.7851583E0,-4.344973E-1,4.4864993E0,1.070862E0,-2.1665479E-1,1.00943826E-1,-9.494247E-2,-0E0,2.1571134E-1,2.555326E-2,-4.6455637E-2,3.0191925E-1,2.6203725E-2,5.0076065E-3,1.3479704E-1,-1.3539637E-2,8.021516E-2],"categories":[],"categories_nodes":[],"categories_segments":[],"categories_sizes":[],"default_left":[0,0,0,0,0,0,0,0,0,0,0,0,0,0,0,0,0,0,0,0,0,0,0,0,0],"id":44,"left_children":[1,3,5,7,9,-1,11,13,15,17,19,21,23,-1,-1,-1,-1,-1,-1,-1,-1,-1,-1,-1,-1],"loss_changes":[1.1839942E2,2.0119731E2,7.067562E1,1.1690509E2,1.1318118E2,0E0,5.8408516E1,1.0176488E2,1.0246174E2,6.652912E0,1.1424484E2,5.6903652E1,5.4904045E1,0E0,0E0,0E0,0E0,0E0,0E0,0E0,0E0,0E0,0E0,0E0,0E0],"parents":[2147483647,0,0,1,1,2,2,3,3,4,4,6,6,7,7,8,8,9,9,10,10,11,11,12,12],"right_children":[2,4,6,8,10,-1,12,14,16,18,20,22,24,-1,-1,-1,-1,-1,-1,-1,-1,-1,-1,-1,-1],"split_conditions":[-1.2088401E0,5.079727E-1,-2.0647793E0,-3.7490696E-1,-1.4701803E0,-1.3031876E-1,-1.6959891E0,-1.1244634E0,-1.0837083E0,-9.045644E-1,-8.1082493E-1,-9.501543E-1,2.4822812E0,1.00943826E-1,-9.494247E-2,-0E0,2.1571134E-1,2.555326E-2,-4.6455637E-2,3.0191925E-1,2.6203725E-2,5.0076065E-3,1.3479704E-1,-1.3539637E-2,8.021516E-2],"split_indices":[1,5,11,11,8,0,10,13,16,13,17,18,3,0,0,0,0,0,0,0,0,0,0,0,0],"split_type":[0,0,0,0,0,0,0,0,0,0,0,0,0,0,0,0,0,0,0,0,0,0,0,0,0],"sum_hessian":[6.45E2,7.6E1,5.69E2,5.3E1,2.3E1,9E0,5.6E2,3.3E1,2E1,5E0,1.8E1,3.4E1,5.26E2,6E0,2.7E1,1.3E1,7E0,1E0,4E0,1.2E1,6E0,2.3E1,1.1E1,5.13E2,1.3E1],"tree_param":{"num_deleted":"0","num_feature":"23","num_nodes":"25","size_leaf_vector":"1"}},{"base_weights":[-3.6884848E-2,-2.961331E-1,5.867427E-1,-3.5011205E-1,1.6536163E0,1.2607871E0,-5.51982E-1,-4.2546898E-1,6.4173573E-1,3.2587606E-2,1.2596594E-1,3.5440257E-1,3.3785014E0,3.5440257E-1,-1.4649558E0,2.356835E-2,-2.6222423E-2,-1.7753793E-2,3.2587606E-2,8.7569065E-2,1.772013E-2,9.33226E-2,2.8268743E-1,1.772013E-2,-4.351611E-2,-1.2251883E-2,-1.215042E-1],"categories":[],"categories_nodes":[],"categories_segments":[],"categories_sizes":[],"default_left":[0,0,0,0,0,0,0,0,0,0,0,0,0,0,0,0,0,0,0,0,0,0,0,0,0,0,0],"id":45,"left_children":[1,3,5,7,9,11,13,15,17,-1,-1,19,21,23,25,-1,-1,-1,-1,-1,-1,-1,-1,-1,-1,-1,-1],"loss_changes":[1.04412094E2,5.073529E1,1.4731721E2,3.47255E1,9.763893E0,3.1857623E2,9.633044E1,3.8260742E1,1.2331745E1,0E0,0E0,3.7670654E1,1.9591577E2,9.698E0,5.271363E1,0E0,0E0,0E0,0E0,0E0,0E0,0E0,0E0,0E0,0E0,0E0,0E0],"parents":[2147483647,0,0,1,1,2,2,3,3,4,4,5,5,6,6,7,7,8,8,11,11,12,12,13,13,14,14],"right_children":[2,4,6,8,10,12,14,16,18,-1,-1,20,22,24,26,-1,-1,-1,-1,-1,-1,-1,-1,-1,-1,-1,-1],"split_conditions":[6.684677E-1,2.8281589E0,-5.9206957E-1,1.6741302E0,1.3863266E0,8.919062E-1,9.028253E-1,-1.2448153E0,-9.6931234E-2,3.2587606E-2,1.2596594E-1,-1.1555223E0,-8.6551374E-1,1.6289158E0,-5.9848243E-1,2.356835E-2,-2.6222423E-2,-1.7753793E-2,3.2587606E-2,8.7569065E-2,1.772013E-2,9.33226E-2,2.8268743E-1,1.772013E-2,-4.351611E-2,-1.2251883E-2,-1.215042E-1],"split_indices":[5,3,6,13,18,22,5,17,11,0,0,13,19,20,8,0,0,0,0,0,0,0,0,0,0,0,0],"split_type":[0,0,0,0,0,0,0,0,0,0,0,0,0,0,0,0,0,0,0,0,0,0,0,0,0,0,0],"sum_hessian":[6.33E2,4.49E2,1.84E2,4.39E2,1E1,1.16E2,6.8E1,4.1E2,2.9E1,6E0,4E0,7.3E1,4.3E1,2.4E1,4.4E1,3.9E1,3.71E2,9E0,2E1,1.6E1,5.7E1,2.4E1,1.9E1,2.1E1,3E0,2.1E1,2.3E1],"tree_param":{"num_deleted":"0","num_feature":"23","num_nodes":"27","size_leaf_vector":"1"}},{"base_weights":[-5.040521E-2,-3.4032318E-1,5.062623E-1,-1.0389035E0,-1.3954945E-1,-1.7723717E-1,1.8730873E0,-3.0008163E0,-7.1025217E-1,3.615903E0,-1.882885E-1,-6.7007965E-1,6.2645626E-1,3.4660041E0,8.4792507E-1,-4.2596976E-3,-1.5797369E-1,-1.0278142E-2,-8.617951E-2,2.328935E-1,-0E0,-2.4106724E-3,-5.0397426E-2,-1.5904311E-2,-9.589176E-2,4.2396255E-2,-1.0905847E-3,1.1008542E-1,3.298945E-1,1.0784823E-1,4.2396255E-2],"categories":[],"categories_nodes":[],"categories_segments":[],"categories_sizes":[],"default_left":[0,0,0,0,0,0,0,0,0,0,0,0,0,0,0,0,0,0,0,0,0,0,0,0,0,0,0,0,0,0,0],"id":46,"left_children":[1,3,5,7,9,11,13,15,17,19,21,23,25,27,29,-1,-1,-1,-1,-1,-1,-1,-1,-1,-1,-1,-1,-1,-1,-1,-1],"loss_changes":[1.0279984E2,5.827407E1,2.0537195E2,5.6046043E1,6.475041E1,6.015935E1,2.4137845E2,2.2557297E0,4.122512E1,1.4872181E1,3.766729E1,3.964306E1,2.017688E1,1.5495728E2,2.717044E1,0E0,0E0,0E0,0E0,0E0,0E0,0E0,0E0,0E0,0E0,0E0,0E0,0E0,0E0,0E0,0E0],"parents":[2147483647,0,0,1,1,2,2,3,3,4,4,5,5,6,6,7,7,8,8,9,9,10,10,11,11,12,12,13,13,14,14],"right_children":[2,4,6,8,10,12,14,16,18,20,22,24,26,28,30,-1,-1,-1,-1,-1,-1,-1,-1,-1,-1,-1,-1,-1,-1,-1,-1],"split_conditions":[5.2167857E-1,-4.237292E-1,8.919062E-1,1.2073661E-1,-2.528451E0,-9.309473E-1,-6.1053354E-1,-1.7236941E0,-6.920687E-1,4.909349E-1,1.462868E0,-6.295473E-1,2.836003E-1,2.3357902E-1,5.3946936E-1,-4.2596976E-3,-1.5797369E-1,-1.0278142E-2,-8.617951E-2,2.328935E-1,-0E0,-2.4106724E-3,-5.0397426E-2,-1.5904311E-2,-9.589176E-2,4.2396255E-2,-1.0905847E-3,1.1008542E-1,3.298945E-1,1.0784823E-1,4.2396255E-2],"split_indices":[5,11,22,9,10,16,6,8,8,20,11,1,10,8,5,0,0,0,0,0,0,0,0,0,0,0,0,0,0,0,0],"split_type":[0,0,0,0,0,0,0,0,0,0,0,0,0,0,0,0,0,0,0,0,0,0,0,0,0,0,0,0,0,0,0],"sum_hessian":[6.24E2,4.12E2,2.12E2,8.9E1,3.23E2,1.42E2,7E1,1E1,7.9E1,2E0,3.21E2,8.9E1,5.3E1,4.4E1,2.6E1,1E0,9E0,5.5E1,2.4E1,1E0,1E0,2.77E2,4.4E1,7.2E1,1.7E1,2.9E1,2.4E1,3.4E1,1E1,3E0,2.3E1],"tree_param":{"num_deleted":"0","num_feature":"23","num_nodes":"31","size_leaf_vector":"1"}},{"base_weights":[-7.0071265E-2,1.620163E-2,-2.0675101E0,8.972692E-1,-1.8427643E-1,-2.3708744E0,-4.2384353E-1,-2.8137317E-1,1.5574054E0,-2.7207965E-1,1.7256877E0,-1.2822352E-1,-5.255788E-1,-0E0,-3.803419E-2,3.1900804E-2,-3.5017822E-2,4.1728567E-2,1.6516583E-1,-4.9266186E-2,-4.5053433E-3,-1.1405442E-1,1.2200999E-1,-3.09514E-2,-0E0,-2.7563572E-3,3.0151487E-3],"categories":[],"categories_nodes":[],"categories_segments":[],"categories_sizes":[],"default_left":[0,0,0,0,0,0,0,0,0,0,0,0,0,0,0,0,0,0,0,0,0,0,0,0,0,0,0],"id":47,"left_children":[1,3,5,7,9,11,13,15,17,19,21,-1,23,25,-1,-1,-1,-1,-1,-1,-1,-1,-1,-1,-1,-1,-1],"loss_changes":[1.1229768E2,1.0774213E2,9.614319E0,9.040061E1,8.4112E1,3.1547012E0,1.7307363E0,2.447845E1,8.637366E1,6.0576736E1,7.7403625E1,0E0,3.3851528E-1,2.5452304E-1,0E0,0E0,0E0,0E0,0E0,0E0,0E0,0E0,0E0,0E0,0E0,0E0,0E0],"parents":[2147483647,0,0,1,1,2,2,3,3,4,4,5,5,6,6,7,7,8,8,9,9,10,10,12,12,13,13],"right_children":[2,4,6,8,10,12,14,16,18,20,22,-1,24,26,-1,-1,-1,-1,-1,-1,-1,-1,-1,-1,-1,-1,-1],"split_conditions":[1.6289158E0,-1.08349E0,1.23845875E-1,-1.085101E0,1.5151176E0,-5.882919E-1,9.550208E-1,-1.2000971E0,-8.587133E-1,-8.044949E-1,-9.6040684E-1,-1.2822352E-1,-9.022773E-1,9.118346E-1,-3.803419E-2,3.1900804E-2,-3.5017822E-2,4.1728567E-2,1.6516583E-1,-4.9266186E-2,-4.5053433E-3,-1.1405442E-1,1.2200999E-1,-3.09514E-2,-0E0,-2.7563572E-3,3.0151487E-3],"split_indices":[20,1,11,16,20,15,11,7,19,11,16,0,1,0,0,0,0,0,0,0,0,0,0,0,0,0,0],"split_type":[0,0,0,0,0,0,0,0,0,0,0,0,0,0,0,0,0,0,0,0,0,0,0,0,0,0,0],"sum_hessian":[6.14E2,5.9E2,2.4E1,1.09E2,4.81E2,1.9E1,5E0,3.9E1,7E1,4.62E2,1.9E1,1.6E1,3E0,3E0,2E0,8E0,3.1E1,5.2E1,1.8E1,9.1E1,3.71E2,2E0,1.7E1,2E0,1E0,1E0,2E0],"tree_param":{"num_deleted":"0","num_feature":"23","num_nodes":"27","size_leaf_vector":"1"}},{"base_weights":[-3.464047E-2,9.526681E-1,-1.5773319E-1,-1.8900843E0,1.6350049E0,1.1753422E0,-2.3141056E-1,5.040438E-1,-2.4564462E0,-6.84558E-1,2.3741739E0,2.4068263E-1,1.4015295E-1,-8.7157345E-1,-5.3069565E-2,6.075122E-2,-1.0481629E-2,-1.5291531E-1,-5.049437E-2,-6.5850794E-2,4.22404E-2,1.626634E-1,4.22404E-2,-5.3424295E-2,4.2292926E-2,9.191975E-3,-5.8997013E-2,-2.1126488E-2,3.0669445E-2],"categories":[],"categories_nodes":[],"categories_segments":[],"categories_sizes":[],"default_left":[0,0,0,0,0,0,0,0,0,0,0,0,0,0,0,0,0,0,0,0,0,0,0,0,0,0,0,0,0],"id":48,"left_children":[1,3,5,7,9,11,13,15,17,19,21,23,-1,25,27,-1,-1,-1,-1,-1,-1,-1,-1,-1,-1,-1,-1,-1,-1],"loss_changes":[7.797827E1,1.4491068E2,5.7198093E1,2.5552738E1,1.05516846E2,4.3463238E1,6.133464E1,5.385675E0,3.4257278E0,2.0834904E1,6.563626E1,2.1570091E1,0E0,3.984159E1,1.0595597E2,0E0,0E0,0E0,0E0,0E0,0E0,0E0,0E0,0E0,0E0,0E0,0E0,0E0,0E0],"parents":[2147483647,0,0,1,1,2,2,3,3,4,4,5,5,6,6,7,7,8,8,9,9,10,10,11,11,13,13,14,14],"right_children":[2,4,6,8,10,12,14,16,18,20,22,24,-1,26,28,-1,-1,-1,-1,-1,-1,-1,-1,-1,-1,-1,-1,-1,-1],"split_conditions":[-1.2088401E0,-1.2993724E0,-1.8095528E0,-1.3298345E0,-1.0208551E0,1.4761186E-1,-6.683191E-1,-1.3090073E0,-2.3510077E0,-5.882919E-1,-7.895082E-1,-4.1944975E-1,1.4015295E-1,-1.2617247E0,-2.1003123E-1,6.075122E-2,-1.0481629E-2,-1.5291531E-1,-5.049437E-2,-6.5850794E-2,4.22404E-2,1.626634E-1,4.22404E-2,-5.3424295E-2,4.2292926E-2,9.191975E-3,-5.8997013E-2,-2.1126488E-2,3.0669445E-2],"split_indices":[1,1,10,20,14,15,11,1,10,15,10,20,0,17,9,0,0,0,0,0,0,0,0,0,0,0,0,0,0],"split_type":[0,0,0,0,0,0,0,0,0,0,0,0,0,0,0,0,0,0,0,0,0,0,0,0,0,0,0,0,0],"sum_hessian":[6.26E2,6.7E1,5.59E2,1.2E1,5.5E1,2.7E1,5.32E2,2E0,1E1,1.3E1,4.2E1,1.9E1,8E0,1.13E2,4.19E2,1E0,1E0,5E0,5E0,1E1,3E0,2.7E1,1.5E1,5E0,1.4E1,2.5E1,8.8E1,2.71E2,1.48E2],"tree_param":{"num_deleted":"0","num_feature":"23","num_nodes":"29","size_leaf_vector":"1"}},{"base_weights":[-5.50849E-2,1.0839567E0,-2.0813091E-1,-0E0,2.618579E0,-7.279562E-1,-8.64386E-3,-8.777321E-1,1.3092895E0,3.2932854E0,6.5464474E-2,4.1891658E-1,-1.324803E0,-3.3008045E-1,5.663182E-1,6.3992314E-2,-9.625218E-2,6.5464474E-2,-2.0985795E-2,6.5464474E-2,2.2755574E-1,3.564712E-2,-1.0021355E-1,-8.4093176E-2,9.958562E-4,-5.022478E-2,-1.1916024E-3,1.18053935E-1,1.6718617E-2],"categories":[],"categories_nodes":[],"categories_segments":[],"categories_sizes":[],"default_left":[0,0,0,0,0,0,0,0,0,0,0,0,0,0,0,0,0,0,0,0,0,0,0,0,0,0,0,0,0],"id":49,"left_children":[1,3,5,7,9,11,13,15,17,19,-1,21,23,25,27,-1,-1,-1,-1,-1,-1,-1,-1,-1,-1,-1,-1,-1,-1],"loss_changes":[1.1309491E2,1.2751271E2,5.8793667E1,8.5031075E1,4.712175E1,1.1014603E2,7.787163E1,8.705534E1,1.497683E1,8.591467E1,0E0,4.4637043E1,5.1937958E1,5.525955E1,6.117809E1,0E0,0E0,0E0,0E0,0E0,0E0,0E0,0E0,0E0,0E0,0E0,0E0,0E0,0E0],"parents":[2147483647,0,0,1,1,2,2,3,3,4,4,5,5,6,6,7,7,8,8,9,9,11,11,12,12,13,13,14,14],"right_children":[2,4,6,8,10,12,14,16,18,20,-1,22,24,26,28,-1,-1,-1,-1,-1,-1,-1,-1,-1,-1,-1,-1,-1,-1],"split_conditions":[-1.2088401E0,-1.1194258E0,-6.683191E-1,-1.3402657E-1,-4.606528E-1,-1.4086525E0,-2.1003123E-1,-8.746421E-1,5.135052E-1,-1.0348343E0,6.5464474E-2,1.6289158E0,-8.03568E-2,4.702906E-1,-1.1672974E0,6.3992314E-2,-9.625218E-2,6.5464474E-2,-2.0985795E-2,6.5464474E-2,2.2755574E-1,3.564712E-2,-1.0021355E-1,-8.4093176E-2,9.958562E-4,-5.022478E-2,-1.1916024E-3,1.18053935E-1,1.6718617E-2],"split_indices":[1,0,11,11,8,8,9,20,13,14,0,20,3,16,13,0,0,0,0,0,0,0,0,0,0,0,0,0,0],"split_type":[0,0,0,0,0,0,0,0,0,0,0,0,0,0,0,0,0,0,0,0,0,0,0,0,0,0,0,0,0],"sum_hessian":[6.35E2,7.3E1,5.62E2,4.4E1,2.9E1,1.53E2,4.09E2,3.2E1,1.2E1,2.4E1,5E0,5.2E1,1.01E2,2.64E2,1.45E2,1E1,2.2E1,9E0,3E0,8E0,1.6E1,4.8E1,4E0,8E1,2.1E1,8E1,1.84E2,1.4E1,1.31E2],"tree_param":{"num_deleted":"0","num_feature":"23","num_nodes":"29","size_leaf_vector":"1"}},{"base_weights":[-1.1149196E-1,-3.8496673E-2,-1.794021E0,5.547121E-1,-2.6256788E-1,-1.2950668E-1,-8.512616E-1,-3.3399457E-1,9.7806376E-1,-1.0724492E0,-8.686838E-2,-1.0827062E0,7.656419E-2,1.6604226E-2,-8.608011E-2,3.8754344E-3,1.4110683E-1,-2.8982941E-2,-9.068154E-2,2.1623392E-1,-1.0745375E-2,-2.5153551E-2,-7.0894614E-2,2.3534084E-2,-1.7631373E-3],"categories":[],"categories_nodes":[],"categories_segments":[],"categories_sizes":[],"default_left":[0,0,0,0,0,0,0,0,0,0,0,0,0,0,0,0,0,0,0,0,0,0,0,0,0],"id":50,"left_children":[1,3,5,7,9,-1,11,13,15,17,19,21,23,-1,-1,-1,-1,-1,-1,-1,-1,-1,-1,-1,-1],"loss_changes":[7.7126495E1,8.037888E1,1.4207153E1,6.376224E1,6.2061905E1,0E0,5.009059E0,5.4957924E1,1.8484253E2,6.0011353E1,2.0943588E2,3.3285904E0,1.5036662E0,0E0,0E0,0E0,0E0,0E0,0E0,0E0,0E0,0E0,0E0,0E0,0E0],"parents":[2147483647,0,0,1,1,2,2,3,3,4,4,6,6,7,7,8,8,9,9,10,10,11,11,12,12],"right_children":[2,4,6,8,10,-1,12,14,16,18,20,22,24,-1,-1,-1,-1,-1,-1,-1,-1,-1,-1,-1,-1],"split_conditions":[1.6289158E0,-8.296247E-1,-1.1187097E0,-1.0670342E0,-8.603969E-1,-1.2950668E-1,1.0067991E0,-1.172977E0,8.919062E-1,-9.926042E-1,-4.832207E-1,1.5950307E-2,1.4158833E0,1.6604226E-2,-8.608011E-2,3.8754344E-3,1.4110683E-1,-2.8982941E-2,-9.068154E-2,2.1623392E-1,-1.0745375E-2,-2.5153551E-2,-7.0894614E-2,2.3534084E-2,-1.7631373E-3],"split_indices":[20,1,14,11,0,0,3,19,22,11,1,1,1,0,0,0,0,0,0,0,0,0,0,0,0],"split_type":[0,0,0,0,0,0,0,0,0,0,0,0,0,0,0,0,0,0,0,0,0,0,0,0,0],"sum_hessian":[6.14E2,5.91E2,2.3E1,1.6E2,4.31E2,1E1,1.3E1,5.1E1,1.09E2,7.4E1,3.57E2,1.1E1,2E0,3.5E1,1.6E1,7.5E1,3.4E1,2.5E1,4.9E1,8E0,3.49E2,4E0,7E0,1E0,1E0],"tree_param":{"num_deleted":"0","num_feature":"23","num_nodes":"25","size_leaf_vector":"1"}},{"base_weights":[5.63228E-3,-5.074312E-1,2.9332173E-1,-1.102216E0,-1.943092E-1,-1.0705474E-1,8.0935156E-1,-6.482626E-1,-2.6213772E0,-6.1212933E-1,-1.0705474E-1,-1.0705474E-1,5.201026E-1,1.2953429E0,-1.0705474E-1,-3.2413132E-2,-7.686697E-2,-3.2413132E-2,-1.4590962E-1,-1.7979601E-2,-3.2413132E-2,-1.7979601E-2,-5.352737E-3,-5.352737E-3,1.0326197E-2,8.6356856E-2,1.0326197E-2,1.0981682E-2,1.10044874E-1,4.391642E-2,-5.352737E-3],"categories":[],"categories_nodes":[],"categories_segments":[],"categories_sizes":[],"default_left":[0,0,0,0,0,0,0,0,0,0,0,0,0,0,0,0,0,0,0,0,0,0,0,0,0,0,0,0,0,0,0],"id":51,"left_children":[1,3,5,7,9,11,13,15,17,19,21,23,25,27,29,-1,-1,-1,-1,-1,-1,-1,-1,-1,-1,-1,-1,-1,-1,-1,-1],"loss_changes":[9.185923E1,4.0639927E1,1.2008711E2,8.038473E1,1.7295483E1,1.3817837E1,1.0388666E2,5.6804075E0,1.96736E1,3.5641098E0,4.2236633E0,6.5552845E0,2.924159E1,1.4010953E2,3.30192E1,0E0,0E0,0E0,0E0,0E0,0E0,0E0,0E0,0E0,